{"learner":{"attributes":{"scikit_learn":"{\"_estimator_type\": \"regressor\"}"},"feature_names":["站点","Relative_Day_t","Is_Weekend","Is_Official_Holiday","Is_Adjusted_Workday","Is_Spring_Festival_Lull","方向","Lag_1Y_Volume","Lag_2Y_Volume","Interaction_Home_Peak","Interaction_Work_Peak","Interaction_Lull","Interaction_Weekend"],"feature_types":["c","int","int","int","int","int","c","float","float","c","c","c","c"],"gradient_booster":{"model":{"cats":{"enc":[{"offsets":[0,2,5],"values":[-27,-92,-87,-26,-76]},{"offsets":[],"values":[]},{"offsets":[],"values":[]},{"offsets":[],"values":[]},{"offsets":[],"values":[]},{"offsets":[],"values":[]},{"offsets":[0,2,4],"values":[-27,-123,-91,-25]},{"offsets":[],"values":[]},{"offsets":[],"values":[]},{"offsets":[0,8,23,38,54,70],"values":[78,111,110,95,80,101,97,107,-27,-92,-87,-26,-76,-91,95,-27,-123,-91,-25,-85,-103,95,95,72,111,109,101,80,101,97,107,-27,-92,-87,-26,-76,-91,95,-27,-121,-70,-25,-85,-103,95,95,72,111,109,101,80,101,97,107,-27,-92,-87,-26,-76,-91,-24,-91,-65,95,-27,-123,-91,-25,-85,-103]},{"offsets":[0,8,23,38,54,70],"values":[78,111,110,95,80,101,97,107,-27,-92,-87,-26,-76,-91,95,-27,-123,-91,-25,-85,-103,95,95,87,111,114,107,80,101,97,107,-27,-92,-87,-26,-76,-91,95,-27,-121,-70,-25,-85,-103,95,95,87,111,114,107,80,101,97,107,-27,-92,-87,-26,-76,-91,-24,-91,-65,95,-27,-123,-91,-25,-85,-103]},{"offsets":[0,8,19,30,42,54],"values":[78,111,110,95,76,117,108,108,-27,-92,-87,-26,-76,-91,95,-27,-123,-91,-25,-85,-103,95,95,76,117,108,108,-27,-92,-87,-26,-76,-91,95,-27,-121,-70,-25,-85,-103,95,95,76,117,108,108,-27,-92,-87,-26,-76,-91,-24,-91]},{"offsets":[0,14,28,43,58,65],"values":[-27,-92,-87,-26,-76,-91,95,-27,-123,-91,-25,-85,-103,95,95,87,101,101,107,101,110,100,-27,-92,-87,-26,-76,-91,95,-27,-121,-70,-25,-85,-103,95,95,87,101,101,107,101,110,100,-27,-92,-87,-26,-76,-91,-24,-91,-65,95,-27,-123,-91,-25,-85,-103,95,95,87,101,101]}],"feature_segments":[0,2,2,2,2,2,2,4,4,4,9,14,19,24],"sorted_idx":[1,0,1,0,3,4,1,2,0,3,4,1,0,2,2,1,3,4,0,4,0,2,1,3]},"gbtree_model_param":{"num_parallel_tree":"1","num_trees":"188"},"iteration_indptr":[0,1,2,3,4,5,6,7,8,9,10,11,12,13,14,15,16,17,18,19,20,21,22,23,24,25,26,27,28,29,30,31,32,33,34,35,36,37,38,39,40,41,42,43,44,45,46,47,48,49,50,51,52,53,54,55,56,57,58,59,60,61,62,63,64,65,66,67,68,69,70,71,72,73,74,75,76,77,78,79,80,81,82,83,84,85,86,87,88,89,90,91,92,93,94,95,96,97,98,99,100,101,102,103,104,105,106,107,108,109,110,111,112,113,114,115,116,117,118,119,120,121,122,123,124,125,126,127,128,129,130,131,132,133,134,135,136,137,138,139,140,141,142,143,144,145,146,147,148,149,150,151,152,153,154,155,156,157,158,159,160,161,162,163,164,165,166,167,168,169,170,171,172,173,174,175,176,177,178,179,180,181,182,183,184,185,186,187,188],"tree_info":[0,0,0,0,0,0,0,0,0,0,0,0,0,0,0,0,0,0,0,0,0,0,0,0,0,0,0,0,0,0,0,0,0,0,0,0,0,0,0,0,0,0,0,0,0,0,0,0,0,0,0,0,0,0,0,0,0,0,0,0,0,0,0,0,0,0,0,0,0,0,0,0,0,0,0,0,0,0,0,0,0,0,0,0,0,0,0,0,0,0,0,0,0,0,0,0,0,0,0,0,0,0,0,0,0,0,0,0,0,0,0,0,0,0,0,0,0,0,0,0,0,0,0,0,0,0,0,0,0,0,0,0,0,0,0,0,0,0,0,0,0,0,0,0,0,0,0,0,0,0,0,0,0,0,0,0,0,0,0,0,0,0,0,0,0,0,0,0,0,0,0,0,0,0,0,0,0,0,0,0,0,0,0,0,0,0,0,0],"trees":[{"base_weights":[-0E0,-8.539406E3,1.0310119E4,-1.3499416E4,-2.1055776E3,6.0267363E3,1.5790441E4,-8.557364E2,-2.3119957E2,-3.960518E2,1.6582094E1,2.6588673E1,3.8453372E2,3.9066388E2,8.473926E2],"categories":[],"categories_nodes":[],"categories_segments":[],"categories_sizes":[],"default_left":[1,1,0,0,0,0,0,0,0,0,0,0,0,0,0],"id":0,"left_children":[1,3,5,7,9,11,13,-1,-1,-1,-1,-1,-1,-1,-1],"loss_changes":[5.8107912E10,1.123592E10,6.067151E9,8.341373E9,2.8319767E9,2.4684652E9,1.0670551E9,0E0,0E0,0E0,0E0,0E0,0E0,0E0,0E0],"parents":[2147483647,0,0,1,1,2,2,3,3,4,4,5,5,6,6],"right_children":[2,4,6,8,10,12,14,-1,-1,-1,-1,-1,-1,-1,-1],"split_conditions":[3.963E4,2.0039E4,5.4275E4,4E0,3.0611E4,3.5723E4,4.5409E4,-8.557364E2,-2.3119957E2,-3.960518E2,1.6582094E1,2.6588673E1,3.8453372E2,3.9066388E2,8.473926E2],"split_indices":[7,7,7,1,8,8,8,0,0,0,0,0,0,0,0],"split_type":[0,0,0,0,0,0,0,0,0,0,0,0,0,0,0],"sum_hessian":[6.4E2,3.51E2,2.89E2,1.92E2,1.59E2,1.74E2,1.15E2,1.08E2,8.4E1,3.6E1,1.23E2,5.9E1,1.15E2,4.6E1,6.9E1],"tree_param":{"num_deleted":"0","num_feature":"13","num_nodes":"15","size_leaf_vector":"1"}},{"base_weights":[2.8105588E0,-8.195753E3,9.90132E3,-1.294575E4,-2.0332805E3,5.7778755E3,1.5178917E4,-8.204915E2,-2.2190242E2,-3.8210394E2,1.5892007E1,2.556554E1,3.6861395E2,3.7622327E2,8.14087E2],"categories":[],"categories_nodes":[],"categories_segments":[],"categories_sizes":[],"default_left":[1,1,0,0,0,0,0,0,0,0,0,0,0,0,0],"id":1,"left_children":[1,3,5,7,9,11,13,-1,-1,-1,-1,-1,-1,-1,-1],"loss_changes":[5.3561307E10,1.0303853E10,5.6297595E9,7.66088E9,2.6345231E9,2.2670648E9,9.6930406E8,0E0,0E0,0E0,0E0,0E0,0E0,0E0,0E0],"parents":[2147483647,0,0,1,1,2,2,3,3,4,4,5,5,6,6],"right_children":[2,4,6,8,10,12,14,-1,-1,-1,-1,-1,-1,-1,-1],"split_conditions":[3.963E4,2.0039E4,5.4275E4,4E0,3.0611E4,3.5723E4,4.5409E4,-8.204915E2,-2.2190242E2,-3.8210394E2,1.5892007E1,2.556554E1,3.6861395E2,3.7622327E2,8.14087E2],"split_indices":[7,7,7,1,8,8,8,0,0,0,0,0,0,0,0],"split_type":[0,0,0,0,0,0,0,0,0,0,0,0,0,0,0],"sum_hessian":[6.4E2,3.51E2,2.89E2,1.92E2,1.59E2,1.74E2,1.15E2,1.08E2,8.4E1,3.6E1,1.23E2,5.9E1,1.15E2,4.6E1,6.9E1],"tree_param":{"num_deleted":"0","num_feature":"13","num_nodes":"15","size_leaf_vector":"1"}},{"base_weights":[5.3906913E0,-7.8659634E3,9.508755E3,-1.2414795E4,-1.9634506E3,5.5392944E3,1.4591092E4,-7.8669836E2,-2.129791E2,-3.686472E2,1.5230694E1,2.4581793E1,3.5335336E2,3.6231647E2,7.820903E2],"categories":[],"categories_nodes":[],"categories_segments":[],"categories_sizes":[],"default_left":[1,1,0,0,0,0,0,0,0,0,0,0,0,0,0],"id":2,"left_children":[1,3,5,7,9,11,13,-1,-1,-1,-1,-1,-1,-1,-1],"loss_changes":[4.937078E10,9.448909E9,5.223803E9,7.0358917E9,2.4508447E9,2.0820946E9,8.802652E8,0E0,0E0,0E0,0E0,0E0,0E0,0E0,0E0],"parents":[2147483647,0,0,1,1,2,2,3,3,4,4,5,5,6,6],"right_children":[2,4,6,8,10,12,14,-1,-1,-1,-1,-1,-1,-1,-1],"split_conditions":[3.963E4,2.0039E4,5.4275E4,4E0,3.0611E4,3.5723E4,4.5409E4,-7.8669836E2,-2.129791E2,-3.686472E2,1.5230694E1,2.4581793E1,3.5335336E2,3.6231647E2,7.820903E2],"split_indices":[7,7,7,1,8,8,8,0,0,0,0,0,0,0,0],"split_type":[0,0,0,0,0,0,0,0,0,0,0,0,0,0,0],"sum_hessian":[6.4E2,3.51E2,2.89E2,1.92E2,1.59E2,1.74E2,1.15E2,1.08E2,8.4E1,3.6E1,1.23E2,5.9E1,1.15E2,4.6E1,6.9E1],"tree_param":{"num_deleted":"0","num_feature":"13","num_nodes":"15","size_leaf_vector":"1"}},{"base_weights":[7.752764E0,-7.45776E3,9.244483E3,-1.1905617E4,-1.8332173E3,2.0842876E3,1.167793E4,-7.5429706E2,-2.0441457E2,-3.5566434E2,1.5247568E1,-2.8550001E1,2.3167337E2,2.5829117E2,6.128775E2],"categories":[0],"categories_nodes":[5],"categories_segments":[0],"categories_sizes":[1],"default_left":[1,1,0,0,0,1,0,0,0,0,0,0,0,0,0],"id":3,"left_children":[1,3,5,7,9,11,13,-1,-1,-1,-1,-1,-1,-1,-1],"loss_changes":[4.5511434E10,8.912994E9,4.8966513E9,6.4618783E9,2.3078446E9,7.5739674E8,1.7316311E9,0E0,0E0,0E0,0E0,0E0,0E0,0E0,0E0],"parents":[2147483647,0,0,1,1,2,2,3,3,4,4,5,5,6,6],"right_children":[2,4,6,8,10,12,14,-1,-1,-1,-1,-1,-1,-1,-1],"split_conditions":[4.0066E4,2.0039E4,3.6522E4,4E0,3.0611E4,1E-45,4.7391E4,-7.5429706E2,-2.0441457E2,-3.5566434E2,1.5247568E1,-2.8550001E1,2.3167337E2,2.5829117E2,6.128775E2],"split_indices":[7,7,8,1,8,0,7,0,0,0,0,0,0,0,0],"split_type":[0,0,0,0,0,1,0,0,0,0,0,0,0,0,0],"sum_hessian":[6.4E2,3.55E2,2.85E2,1.92E2,1.63E2,7.7E1,2.08E2,1.08E2,8.4E1,3.6E1,1.27E2,4.5E1,3.2E1,6.1E1,1.47E2],"tree_param":{"num_deleted":"0","num_feature":"13","num_nodes":"15","size_leaf_vector":"1"}},{"base_weights":[3.9446273E0,-7.157753E3,8.864897E3,-1.0940449E4,-1.1372279E3,3.9787778E3,1.2371691E4,-6.6120325E2,-1.951718E2,-1.5463774E2,1.7752821E2,6.0083775E1,2.8602332E2,1.7925125E2,6.2306104E2],"categories":[0,0],"categories_nodes":[4,5],"categories_segments":[0,1],"categories_sizes":[1,1],"default_left":[1,1,0,0,1,1,0,0,0,0,0,0,0,0,0],"id":4,"left_children":[1,3,5,7,9,11,13,-1,-1,-1,-1,-1,-1,-1,-1],"loss_changes":[4.1883185E10,8.1880105E9,4.5624525E9,4.8890675E9,1.9116954E9,7.823982E8,1.5134618E9,0E0,0E0,0E0,0E0,0E0,0E0,0E0,0E0],"parents":[2147483647,0,0,1,1,2,2,3,3,4,4,5,5,6,6],"right_children":[2,4,6,8,10,12,14,-1,-1,-1,-1,-1,-1,-1,-1],"split_conditions":[4.0066E4,2.3951E4,4.4379E4,4E0,1E-45,1E-45,4.5022E4,-6.6120325E2,-1.951718E2,-1.5463774E2,1.7752821E2,6.0083775E1,2.8602332E2,1.7925125E2,6.2306104E2],"split_indices":[7,7,8,1,0,0,7,0,0,0,0,0,0,0,0],"split_type":[0,0,0,0,1,1,0,0,0,0,0,0,0,0,0],"sum_hessian":[6.4E2,3.55E2,2.85E2,2.13E2,1.42E2,1.28E2,1.57E2,1.28E2,8.5E1,1E2,4.2E1,6.8E1,6E1,2.9E1,1.28E2],"tree_param":{"num_deleted":"0","num_feature":"13","num_nodes":"15","size_leaf_vector":"1"}},{"base_weights":[8.612164E0,-6.9451104E3,8.403959E3,-1.0982651E4,-1.7082148E3,3.1149717E3,1.1449684E4,-6.875577E2,-1.7722467E2,-3.370104E2,1.888316E1,-3.660998E1,2.505399E2,4.4065125E1,5.5698895E2],"categories":[0],"categories_nodes":[2],"categories_segments":[0],"categories_sizes":[1],"default_left":[1,1,1,0,0,0,0,0,0,0,0,0,0,0,0],"id":5,"left_children":[1,3,5,7,9,11,13,-1,-1,-1,-1,-1,-1,-1,-1],"loss_changes":[3.8529958E10,7.445428E9,4.459862E9,5.5118316E9,2.1102762E9,1.2304086E9,1.6857702E9,0E0,0E0,0E0,0E0,0E0,0E0,0E0,0E0],"parents":[2147483647,0,0,1,1,2,2,3,3,4,4,5,5,6,6],"right_children":[2,4,6,8,10,12,14,-1,-1,-1,-1,-1,-1,-1,-1],"split_conditions":[3.963E4,2.0039E4,1E-45,5E0,3.0611E4,3.8716E4,2.7269E4,-6.875577E2,-1.7722467E2,-3.370104E2,1.888316E1,-3.660998E1,2.505399E2,4.4065125E1,5.5698895E2],"split_indices":[7,7,0,1,8,8,8,0,0,0,0,0,0,0,0],"split_type":[0,0,1,0,0,0,0,0,0,0,0,0,0,0,0],"sum_hessian":[6.4E2,3.51E2,2.89E2,1.92E2,1.59E2,1.13E2,1.76E2,1.12E2,8E1,3.6E1,1.23E2,4.6E1,6.7E1,1.6E1,1.6E2],"tree_param":{"num_deleted":"0","num_feature":"13","num_nodes":"15","size_leaf_vector":"1"}},{"base_weights":[2.5648558E0,-9.430293E3,5.717302E3,-1.2430172E4,-4.287437E3,1.9720702E3,1.1650851E4,-7.35899E2,-2.3305629E2,-3.4542215E2,1.403851E1,-9.187564E1,2.0629715E2,2.749684E2,6.621332E2],"categories":[0],"categories_nodes":[4],"categories_segments":[0],"categories_sizes":[1],"default_left":[1,0,0,1,1,0,0,0,0,0,0,0,0,0,0],"id":6,"left_children":[1,3,5,7,9,11,13,-1,-1,-1,-1,-1,-1,-1,-1],"loss_changes":[3.557825E10,3.3086054E9,8.903676E9,3.4770166E9,1.6916119E9,2.8616842E9,1.7654272E9,0E0,0E0,0E0,0E0,0E0,0E0,0E0,0E0],"parents":[2147483647,0,0,1,1,2,2,3,3,4,4,5,5,6,6],"right_children":[2,4,6,8,10,12,14,-1,-1,-1,-1,-1,-1,-1,-1],"split_conditions":[2.7964E4,3E0,5.0275E4,1.5244E4,1E-45,3.9514E4,4.5409E4,-7.35899E2,-2.3305629E2,-3.4542215E2,1.403851E1,-9.187564E1,2.0629715E2,2.749684E2,6.621332E2],"split_indices":[7,1,7,7,0,8,8,0,0,0,0,0,0,0,0],"split_type":[0,0,0,0,1,0,0,0,0,0,0,0,0,0,0],"sum_hessian":[6.4E2,2.39E2,4.01E2,1.42E2,9.7E1,2.54E2,1.47E2,8.4E1,5.8E1,5.2E1,4.5E1,1.01E2,1.53E2,6.3E1,8.4E1],"tree_param":{"num_deleted":"0","num_feature":"13","num_nodes":"15","size_leaf_vector":"1"}},{"base_weights":[-1.3757813E0,-6.357835E3,7.8634395E3,-1.0129967E4,-1.5858696E3,4.4461426E3,1.2155264E4,-6.4207556E2,-1.7357921E2,-3.2052502E2,1.7504463E1,2.9092731E1,2.9888116E2,5.947143E2,1.1818957E2],"categories":[],"categories_nodes":[],"categories_segments":[],"categories_sizes":[],"default_left":[1,1,0,0,0,0,0,0,0,0,0,0,0,0,0],"id":7,"left_children":[1,3,5,7,9,11,13,-1,-1,-1,-1,-1,-1,-1,-1],"loss_changes":[3.2994986E10,6.409516E9,3.7861437E9,4.693244E9,1.9194004E9,1.4587423E9,9.161728E8,0E0,0E0,0E0,0E0,0E0,0E0,0E0,0E0],"parents":[2147483647,0,0,1,1,2,2,3,3,4,4,5,5,6,6],"right_children":[2,4,6,8,10,12,14,-1,-1,-1,-1,-1,-1,-1,-1],"split_conditions":[4.0066E4,2.0039E4,5.4275E4,4E0,3.0611E4,3.8716E4,2E1,-6.4207556E2,-1.7357921E2,-3.2052502E2,1.7504463E1,2.9092731E1,2.9888116E2,5.947143E2,1.1818957E2],"split_indices":[7,7,7,1,8,8,1,0,0,0,0,0,0,0,0],"split_type":[0,0,0,0,0,0,0,0,0,0,0,0,0,0,0],"sum_hessian":[6.4E2,3.55E2,2.85E2,1.92E2,1.63E2,1.7E2,1.15E2,1.08E2,8.4E1,3.6E1,1.27E2,6.7E1,1.03E2,1E2,1.5E1],"tree_param":{"num_deleted":"0","num_feature":"13","num_nodes":"15","size_leaf_vector":"1"}},{"base_weights":[-2.511382E0,-6.102382E3,7.5448677E3,-9.714499E3,-1.5320209E3,4.456826E3,1.2056853E4,-6.083108E2,-1.5656482E2,-3.0923706E2,1.6774282E1,7.0551216E1,3.0478018E2,2.0091798E0,5.7240247E2],"categories":[0],"categories_nodes":[5],"categories_segments":[0],"categories_sizes":[1],"default_left":[1,1,0,0,0,1,0,0,0,0,0,0,0,0,0],"id":8,"left_children":[1,3,5,7,9,11,13,-1,-1,-1,-1,-1,-1,-1,-1],"loss_changes":[3.038514E10,5.87683E9,3.5729234E9,4.320295E9,1.7852703E9,1.1718188E9,9.024901E8,0E0,0E0,0E0,0E0,0E0,0E0,0E0,0E0],"parents":[2147483647,0,0,1,1,2,2,3,3,4,4,5,5,6,6],"right_children":[2,4,6,8,10,12,14,-1,-1,-1,-1,-1,-1,-1,-1],"split_conditions":[4.0066E4,2.0039E4,5.3008E4,5E0,3.0611E4,1E-45,4.0785E4,-6.083108E2,-1.5656482E2,-3.0923706E2,1.6774282E1,7.0551216E1,3.0478018E2,2.0091798E0,5.7240247E2],"split_indices":[7,7,8,1,8,0,7,0,0,0,0,0,0,0,0],"split_type":[0,0,0,0,0,1,0,0,0,0,0,0,0,0,0],"sum_hessian":[6.4E2,3.55E2,2.85E2,1.92E2,1.63E2,1.81E2,1.04E2,1.12E2,8E1,3.6E1,1.27E2,8.8E1,9.3E1,6E0,9.8E1],"tree_param":{"num_deleted":"0","num_feature":"13","num_nodes":"15","size_leaf_vector":"1"}},{"base_weights":[-4.0528245E0,-8.630908E3,4.9256733E3,-1.1707079E4,-4.137586E3,3.1465646E2,8.984968E3,-6.5173193E2,-2.3716183E2,-3.408157E2,1.3093801E1,-1.09179276E2,1.1836751E2,2.1097284E2,5.3134344E2],"categories":[0,0],"categories_nodes":[2,4],"categories_segments":[0,1],"categories_sizes":[1,1],"default_left":[1,0,1,1,1,0,0,0,0,0,0,0,0,0,0],"id":9,"left_children":[1,3,5,7,9,11,13,-1,-1,-1,-1,-1,-1,-1,-1],"loss_changes":[2.8068356E10,2.8329288E9,7.8330593E9,1.6845599E9,1.7415607E9,1.3776694E9,2.1509714E9,0E0,0E0,0E0,0E0,0E0,0E0,0E0,0E0],"parents":[2147483647,0,0,1,1,2,2,3,3,4,4,5,5,6,6],"right_children":[2,4,6,8,10,12,14,-1,-1,-1,-1,-1,-1,-1,-1],"split_conditions":[2.7056E4,2E0,1E-45,1.5244E4,1E-45,4.027E4,4.9857E4,-6.5173193E2,-2.3716183E2,-3.408157E2,1.3093801E1,-1.09179276E2,1.1836751E2,2.1097284E2,5.3134344E2],"split_indices":[7,1,0,7,0,7,7,0,0,0,0,0,0,0,0],"split_type":[0,0,1,0,1,0,0,0,0,0,0,0,0,0,0],"sum_hessian":[6.4E2,2.3E2,4.1E2,1.27E2,1.03E2,1.97E2,2.13E2,8E1,4.7E1,5.4E1,4.9E1,9E1,1.07E2,9.5E1,1.18E2],"tree_param":{"num_deleted":"0","num_feature":"13","num_nodes":"15","size_leaf_vector":"1"}},{"base_weights":[-1.10260935E1,-8.293211E3,4.721911E3,1.7985754E2,-9.058101E3,3.0094092E2,8.613933E3,-4.71643E2,-7.615355E1,-1.1162008E2,1.0809429E2,2.0238322E2,5.0930103E2],"categories":[0,2,3,4,0],"categories_nodes":[1,2],"categories_segments":[0,4],"categories_sizes":[4,1],"default_left":[1,1,1,0,0,0,0,0,0,0,0,0,0],"id":10,"left_children":[1,3,5,-1,7,9,11,-1,-1,-1,-1,-1,-1],"loss_changes":[2.587099E10,2.6181704E9,7.200803E9,0E0,2.2226432E9,1.2693161E9,1.9730883E9,0E0,0E0,0E0,0E0,0E0,0E0],"parents":[2147483647,0,0,1,1,2,2,4,4,5,5,6,6],"right_children":[2,4,6,-1,8,10,12,-1,-1,-1,-1,-1,-1],"split_conditions":[2.7056E4,1E-45,1E-45,1.7985754E2,1.5E1,3.963E4,4.9857E4,-4.71643E2,-7.615355E1,-1.1162008E2,1.0809429E2,2.0238322E2,5.0930103E2],"split_indices":[7,10,0,0,1,7,7,0,0,0,0,0,0],"split_type":[0,1,1,0,0,0,0,0,0,0,0,0,0],"sum_hessian":[6.4E2,2.3E2,4.1E2,1.1E1,2.19E2,1.97E2,2.13E2,1.8E2,3.9E1,8.4E1,1.13E2,9.5E1,1.18E2],"tree_param":{"num_deleted":"0","num_feature":"13","num_nodes":"13","size_leaf_vector":"1"}},{"base_weights":[-5.294982E0,-7.708772E3,4.6619014E3,1.75618E2,-8.409413E3,4.1818463E2,8.36332E3,-4.3450702E2,-7.342605E1,2.2161493E2,-3.3894077E1,1.4099246E2,4.7081622E2],"categories":[0,2,3,4,0,0,4],"categories_nodes":[1,2,5],"categories_segments":[0,4,5],"categories_sizes":[4,1,2],"default_left":[1,1,1,0,0,1,0,0,0,0,0,0,0],"id":11,"left_children":[1,3,5,-1,7,9,11,-1,-1,-1,-1,-1,-1],"loss_changes":[2.3729244E10,2.3539108E9,6.420911E9,0E0,1.8528369E9,1.1034474E9,2.0766781E9,0E0,0E0,0E0,0E0,0E0,0E0],"parents":[2147483647,0,0,1,1,2,2,4,4,5,5,6,6],"right_children":[2,4,6,-1,8,10,12,-1,-1,-1,-1,-1,-1],"split_conditions":[2.7964E4,1E-45,1E-45,1.75618E2,1.5E1,1E-45,4.3348E4,-4.3450702E2,-7.342605E1,2.2161493E2,-3.3894077E1,1.4099246E2,4.7081622E2],"split_indices":[7,10,0,0,1,10,8,0,0,0,0,0,0],"split_type":[0,1,1,0,0,1,0,0,0,0,0,0,0],"sum_hessian":[6.4E2,2.39E2,4.01E2,1.1E1,2.28E2,1.92E2,2.09E2,1.89E2,3.9E1,3.3E1,1.59E2,6.7E1,1.42E2],"tree_param":{"num_deleted":"0","num_feature":"13","num_nodes":"13","size_leaf_vector":"1"}},{"base_weights":[2.1286778E0,-5.1945435E3,6.431841E3,-8.312469E3,-1.2536919E3,3.7338904E3,1.0693114E4,-5.3106335E2,-1.37179E2,-2.8480438E2,2.4386608E1,3.5255106E2,1.01331764E2,5.4784845E2,1.3674263E2],"categories":[3,4],"categories_nodes":[5],"categories_segments":[0],"categories_sizes":[2],"default_left":[1,1,0,0,0,1,0,0,0,0,0,0,0,0,0],"id":12,"left_children":[1,3,5,7,9,11,13,-1,-1,-1,-1,-1,-1,-1,-1],"loss_changes":[2.2052624E10,4.380635E9,2.9922437E9,3.350148E9,1.610902E9,1.0147341E9,8.659231E8,0E0,0E0,0E0,0E0,0E0,0E0,0E0,0E0],"parents":[2147483647,0,0,1,1,2,2,3,3,4,4,5,5,6,6],"right_children":[2,4,6,8,10,12,14,-1,-1,-1,-1,-1,-1,-1,-1],"split_conditions":[4.0066E4,2.0039E4,5.4003E4,4E0,3.0611E4,1E-45,1.9E1,-5.3106335E2,-1.37179E2,-2.8480438E2,2.4386608E1,3.5255106E2,1.01331764E2,5.4784845E2,1.3674263E2],"split_indices":[7,7,8,1,8,12,1,0,0,0,0,0,0,0,0],"split_type":[0,0,0,0,0,1,0,0,0,0,0,0,0,0,0],"sum_hessian":[6.4E2,3.55E2,2.85E2,1.92E2,1.63E2,1.86E2,9.9E1,1.08E2,8.4E1,3.6E1,1.27E2,3.8E1,1.48E2,7.8E1,2.1E1],"tree_param":{"num_deleted":"0","num_feature":"13","num_nodes":"15","size_leaf_vector":"1"}},{"base_weights":[5.2608714E0,-4.8231357E3,6.3976045E3,-8.058881E3,-1.1952302E3,3.6254512E3,1.09170625E4,-5.2270483E2,-1.3166263E2,-2.735754E2,2.558695E1,3.386066E2,9.900129E1,5.566292E2,1.4667734E2],"categories":[3,4],"categories_nodes":[5],"categories_segments":[0],"categories_sizes":[2],"default_left":[1,1,0,0,0,1,0,0,0,0,0,0,0,0,0],"id":13,"left_children":[1,3,5,7,9,11,13,-1,-1,-1,-1,-1,-1,-1,-1],"loss_changes":[2.0370668E10,4.317525E9,3.162324E9,3.256785E9,1.662796E9,8.9601024E8,7.424082E8,0E0,0E0,0E0,0E0,0E0,0E0,0E0,0E0],"parents":[2147483647,0,0,1,1,2,2,3,3,4,4,5,5,6,6],"right_children":[2,4,6,8,10,12,14,-1,-1,-1,-1,-1,-1,-1,-1],"split_conditions":[4.0785E4,1.8519E4,5.4003E4,4E0,3.0611E4,1E-45,1.9E1,-5.2270483E2,-1.3166263E2,-2.735754E2,2.558695E1,3.386066E2,9.900129E1,5.566292E2,1.4667734E2],"split_indices":[7,7,8,1,8,12,1,0,0,0,0,0,0,0,0],"split_type":[0,0,0,0,0,1,0,0,0,0,0,0,0,0,0],"sum_hessian":[6.4E2,3.66E2,2.74E2,1.87E2,1.79E2,1.81E2,9.3E1,1.03E2,8.4E1,4.1E1,1.38E2,3.7E1,1.44E2,7.3E1,2E1],"tree_param":{"num_deleted":"0","num_feature":"13","num_nodes":"15","size_leaf_vector":"1"}},{"base_weights":[8.694808E0,-4.7178315E3,6.0387944E3,-7.996193E3,-1.4661094E3,3.4294165E3,1.0244741E4,-5.4704266E2,-1.2636805E2,-2.8435834E2,7.3091035E0,-4.1860836E1,2.0014207E2,5.1859375E2,1.4227705E2],"categories":[],"categories_nodes":[],"categories_segments":[],"categories_sizes":[],"default_left":[1,1,0,0,0,0,0,0,0,0,0,0,0,0,0],"id":14,"left_children":[1,3,5,7,9,11,13,-1,-1,-1,-1,-1,-1,-1,-1],"loss_changes":[1.8810827E10,3.8270746E9,2.8313754E9,3.5868518E9,1.575107E9,9.025308E8,5.963172E8,0E0,0E0,0E0,0E0,0E0,0E0,0E0,0E0],"parents":[2147483647,0,0,1,1,2,2,3,3,4,4,5,5,6,6],"right_children":[2,4,6,8,10,12,14,-1,-1,-1,-1,-1,-1,-1,-1],"split_conditions":[4.0556E4,1.5244E4,5.4003E4,4E0,3.0611E4,2.9073E4,1.9E1,-5.4704266E2,-1.2636805E2,-2.8435834E2,7.3091035E0,-4.1860836E1,2.0014207E2,5.1859375E2,1.4227705E2],"split_indices":[7,7,8,1,8,8,1,0,0,0,0,0,0,0,0],"split_type":[0,0,0,0,0,0,0,0,0,0,0,0,0,0,0],"sum_hessian":[6.4E2,3.6E2,2.8E2,1.72E2,1.88E2,1.84E2,9.6E1,8.8E1,8.4E1,4E1,1.48E2,3.5E1,1.49E2,7.6E1,2E1],"tree_param":{"num_deleted":"0","num_feature":"13","num_nodes":"15","size_leaf_vector":"1"}},{"base_weights":[6.283702E0,-5.6842573E3,4.633587E3,-7.881051E3,-2.3156895E3,2.1102454E3,9.289388E3,-5.2993945E2,-1.3460355E2,-2.3134264E2,7.4597305E1,-6.041983E1,1.9809386E2,4.6104968E2,6.149207E1],"categories":[0],"categories_nodes":[4],"categories_segments":[0],"categories_sizes":[1],"default_left":[1,0,0,1,1,0,0,0,0,0,0,0,0,0,0],"id":15,"left_children":[1,3,5,7,9,11,13,-1,-1,-1,-1,-1,-1,-1,-1],"loss_changes":[1.7379092E10,2.0079022E9,4.080295E9,2.9811077E9,1.5558189E9,2.0295731E9,8.069294E8,0E0,0E0,0E0,0E0,0E0,0E0,0E0,0E0],"parents":[2147483647,0,0,1,1,2,2,3,3,4,4,5,5,6,6],"right_children":[2,4,6,8,10,12,14,-1,-1,-1,-1,-1,-1,-1,-1],"split_conditions":[3.3178E4,3E0,5.4275E4,1.5244E4,1E-45,3.9299E4,2E1,-5.2993945E2,-1.3460355E2,-2.3134264E2,7.4597305E1,-6.041983E1,1.9809386E2,4.6104968E2,6.149207E1],"split_indices":[7,1,7,7,6,8,1,0,0,0,0,0,0,0,0],"split_type":[0,0,0,0,1,0,0,0,0,0,0,0,0,0,0],"sum_hessian":[6.4E2,2.86E2,3.54E2,1.65E2,1.21E2,2.39E2,1.15E2,8.4E1,8.1E1,6.9E1,5.2E1,9.7E1,1.42E2,1E2,1.5E1],"tree_param":{"num_deleted":"0","num_feature":"13","num_nodes":"15","size_leaf_vector":"1"}},{"base_weights":[3.5229688E0,-4.29015E3,5.6879834E3,-6.786377E3,-6.118611E2,3.1704756E3,9.804131E3,1.7903577E2,-3.389674E2,-1.5089589E2,8.665292E1,3.1262408E2,8.153806E1,4.9981796E2,1.3190712E2],"categories":[0,2,3,4,3,4],"categories_nodes":[3,5],"categories_segments":[0,4],"categories_sizes":[4,2],"default_left":[1,1,0,1,0,1,0,0,0,0,0,0,0,0,0],"id":16,"left_children":[1,3,5,7,9,11,13,-1,-1,-1,-1,-1,-1,-1,-1],"loss_changes":[1.6108714E10,3.410842E9,2.6320804E9,2.0910868E9,1.1984332E9,8.54085E8,5.967616E8,0E0,0E0,0E0,0E0,0E0,0E0,0E0,0E0],"parents":[2147483647,0,0,1,1,2,2,3,3,4,4,5,5,6,6],"right_children":[2,4,6,8,10,12,14,-1,-1,-1,-1,-1,-1,-1,-1],"split_conditions":[4.0785E4,2.3951E4,5.4003E4,1E-45,6.5885E4,1E-45,1.9E1,1.7903577E2,-3.389674E2,-1.5089589E2,8.665292E1,3.1262408E2,8.153806E1,4.9981796E2,1.3190712E2],"split_indices":[7,7,8,10,8,12,1,0,0,0,0,0,0,0,0],"split_type":[0,0,0,1,0,1,0,0,0,0,0,0,0,0,0],"sum_hessian":[6.4E2,3.66E2,2.74E2,2.13E2,1.53E2,1.81E2,9.3E1,1.1E1,2.02E2,7.2E1,8.1E1,3.7E1,1.44E2,7.3E1,2E1],"tree_param":{"num_deleted":"0","num_feature":"13","num_nodes":"15","size_leaf_vector":"1"}},{"base_weights":[1.569896E1,-4.1030547E3,5.4681475E3,-7.101846E3,-1.2265272E3,3.0484402E3,9.424279E3,-4.9065598E2,-1.072318E2,-2.5673035E2,1.2903779E1,3.015492E2,7.810706E1,2.5687338E2,5.75456E2],"categories":[3,4],"categories_nodes":[5],"categories_segments":[0],"categories_sizes":[2],"default_left":[1,1,0,0,0,1,0,0,0,0,0,0,0,0,0],"id":17,"left_children":[1,3,5,7,9,11,13,-1,-1,-1,-1,-1,-1,-1,-1],"loss_changes":[1.4821603E10,3.1563013E9,2.4313344E9,3.0051604E9,1.3989449E9,7.995132E8,5.574267E8,0E0,0E0,0E0,0E0,0E0,0E0,0E0,0E0],"parents":[2147483647,0,0,1,1,2,2,3,3,4,4,5,5,6,6],"right_children":[2,4,6,8,10,12,14,-1,-1,-1,-1,-1,-1,-1,-1],"split_conditions":[4.0785E4,1.5244E4,5.4003E4,4E0,3.0611E4,1E-45,1E0,-4.9065598E2,-1.072318E2,-2.5673035E2,1.2903779E1,3.015492E2,7.810706E1,2.5687338E2,5.75456E2],"split_indices":[7,7,8,1,8,12,3,0,0,0,0,0,0,0,0],"split_type":[0,0,0,0,0,1,0,0,0,0,0,0,0,0,0],"sum_hessian":[6.4E2,3.66E2,2.74E2,1.72E2,1.94E2,1.81E2,9.3E1,8.8E1,8.4E1,4.2E1,1.52E2,3.7E1,1.44E2,5.7E1,3.6E1],"tree_param":{"num_deleted":"0","num_feature":"13","num_nodes":"15","size_leaf_vector":"1"}},{"base_weights":[2.0689327E1,-6.026284E3,3.4756125E3,1.7734323E2,-6.6771587E3,-7.544769E1,6.6160356E3,-3.5242194E2,-3.771247E1,-6.568794E1,1.1499798E2,1.8373311E2,4.4870007E2],"categories":[0,2,3,4,0],"categories_nodes":[1,2],"categories_segments":[0,4],"categories_sizes":[4,1],"default_left":[1,1,1,0,0,0,0,0,0,0,0,0,0],"id":18,"left_children":[1,3,5,-1,7,9,11,-1,-1,-1,-1,-1,-1],"loss_changes":[1.3789136E10,1.8201293E9,4.688768E9,0E0,1.4780232E9,7.911953E8,1.4880737E9,0E0,0E0,0E0,0E0,0E0,0E0],"parents":[2147483647,0,0,1,1,2,2,4,4,5,5,6,6],"right_children":[2,4,6,-1,8,10,12,-1,-1,-1,-1,-1,-1],"split_conditions":[2.7056E4,1E-45,1E-45,1.7734323E2,1.5E1,1E0,5.7373E4,-3.5242194E2,-3.771247E1,-6.568794E1,1.1499798E2,1.8373311E2,4.4870007E2],"split_indices":[7,10,0,0,1,3,7,0,0,0,0,0,0],"split_type":[0,1,1,0,0,0,0,0,0,0,0,0,0],"sum_hessian":[6.4E2,2.3E2,4.1E2,1.1E1,2.19E2,1.97E2,2.13E2,1.8E2,3.9E1,1.32E2,6.5E1,1.34E2,7.9E1],"tree_param":{"num_deleted":"0","num_feature":"13","num_nodes":"13","size_leaf_vector":"1"}},{"base_weights":[2.6972776E1,-3.7900776E3,5.0795864E3,-6.5815137E3,-1.1138861E3,1.7305183E3,7.530699E3,-4.5658875E2,-9.7413345E1,-2.4476868E2,1.5447229E1,1.1899687E1,1.783507E2,2.0004668E2,5.3368427E2],"categories":[],"categories_nodes":[],"categories_segments":[],"categories_sizes":[],"default_left":[1,1,0,0,0,0,0,0,0,0,0,0,0,0,0],"id":19,"left_children":[1,3,5,7,9,11,13,-1,-1,-1,-1,-1,-1,-1,-1],"loss_changes":[1.2728474E10,2.7355587E9,2.2010107E9,2.6460017E9,1.3044512E9,4.2489203E8,1.623041E9,0E0,0E0,0E0,0E0,0E0,0E0,0E0,0E0],"parents":[2147483647,0,0,1,1,2,2,3,3,4,4,5,5,6,6],"right_children":[2,4,6,8,10,12,14,-1,-1,-1,-1,-1,-1,-1,-1],"split_conditions":[4.0785E4,1.5244E4,4.4379E4,4E0,3.0611E4,5.323E4,1E0,-4.5658875E2,-9.7413345E1,-2.4476868E2,1.5447229E1,1.1899687E1,1.783507E2,2.0004668E2,5.3368427E2],"split_indices":[7,7,8,1,8,7,3,0,0,0,0,0,0,0,0],"split_type":[0,0,0,0,0,0,0,0,0,0,0,0,0,0,0],"sum_hessian":[6.4E2,3.66E2,2.74E2,1.72E2,1.94E2,1.23E2,1.51E2,8.8E1,8.4E1,4.2E1,1.52E2,8.1E1,4.2E1,1E2,5.1E1],"tree_param":{"num_deleted":"0","num_feature":"13","num_nodes":"15","size_leaf_vector":"1"}},{"base_weights":[2.79239E1,-3.0316226E3,5.902105E3,-5.7704062E3,-1.3087172E2,2.5338916E3,8.328193E3,1.7545917E2,-2.9052222E2,-9.663435E1,1.0745274E2,3.9222965E1,2.4346404E2,1.7409227E2,4.601759E2],"categories":[0,2,3,4,0],"categories_nodes":[3,6],"categories_segments":[0,4],"categories_sizes":[4,1],"default_left":[1,1,0,1,0,0,1,0,0,0,0,0,0,0,0],"id":20,"left_children":[1,3,5,7,9,11,13,-1,-1,-1,-1,-1,-1,-1,-1],"loss_changes":[1.1860947E10,3.4403674E9,1.6357396E9,1.7301827E9,1.1737636E9,4.740075E8,6.792694E8,0E0,0E0,0E0,0E0,0E0,0E0,0E0,0E0],"parents":[2147483647,0,0,1,1,2,2,3,3,4,4,5,5,6,6],"right_children":[2,4,6,8,10,12,14,-1,-1,-1,-1,-1,-1,-1,-1],"split_conditions":[4.5022E4,2.3951E4,4.5409E4,1E-45,6.6367E4,1E0,1E-45,1.7545917E2,-2.9052222E2,-9.663435E1,1.0745274E2,3.9222965E1,2.4346404E2,1.7409227E2,4.601759E2],"split_indices":[7,7,8,10,8,2,6,0,0,0,0,0,0,0,0],"split_type":[0,0,0,1,0,0,1,0,0,0,0,0,0,0,0],"sum_hessian":[6.4E2,4.24E2,2.16E2,2.13E2,2.11E2,9.9E1,1.17E2,1.1E1,2.02E2,1.18E2,9.3E1,7.1E1,2.8E1,4.4E1,7.3E1],"tree_param":{"num_deleted":"0","num_feature":"13","num_nodes":"15","size_leaf_vector":"1"}},{"base_weights":[3.9170692E1,-4.476304E3,3.7100217E3,-6.350754E3,-1.630558E3,1.882994E3,8.41034E3,-4.3105222E2,-1.0432129E2,-1.9518243E2,9.366496E1,2.9869125E2,2.1449099E1,4.1122598E2,6.095877E1],"categories":[0,3,4],"categories_nodes":[4,5],"categories_segments":[0,1],"categories_sizes":[1,2],"default_left":[1,0,0,1,1,1,0,0,0,0,0,0,0,0,0],"id":21,"left_children":[1,3,5,7,9,11,13,-1,-1,-1,-1,-1,-1,-1,-1],"loss_changes":[1.0940234E10,1.4753644E9,2.9675146E9,2.0560148E9,1.4065384E9,1.8071713E9,3.8472653E8,0E0,0E0,0E0,0E0,0E0,0E0,0E0,0E0],"parents":[2147483647,0,0,1,1,2,2,3,3,4,4,5,5,6,6],"right_children":[2,4,6,8,10,12,14,-1,-1,-1,-1,-1,-1,-1,-1],"split_conditions":[3.3178E4,3E0,5.7373E4,1.5244E4,1E-45,1E-45,2E1,-4.3105222E2,-1.0432129E2,-1.9518243E2,9.366496E1,2.9869125E2,2.1449099E1,4.1122598E2,6.095877E1],"split_indices":[7,1,7,7,6,12,1,0,0,0,0,0,0,0,0],"split_type":[0,0,0,0,1,1,0,0,0,0,0,0,0,0,0],"sum_hessian":[6.4E2,2.86E2,3.54E2,1.65E2,1.21E2,2.65E2,8.9E1,8.4E1,8.1E1,6.9E1,5.2E1,5.2E1,2.13E2,7.8E1,1.1E1],"tree_param":{"num_deleted":"0","num_feature":"13","num_nodes":"15","size_leaf_vector":"1"}},{"base_weights":[3.979917E1,-2.7996E3,5.4906943E3,-5.648469E3,-4.140769E2,2.2902834E3,7.8051577E3,-3.701181E2,-7.5220184E1,-1.1515956E2,8.803961E1,3.238919E1,2.2658609E2,1.6089496E2,4.3274823E2],"categories":[0],"categories_nodes":[6],"categories_segments":[0],"categories_sizes":[1],"default_left":[1,1,0,0,0,0,1,0,0,0,0,0,0,0,0],"id":22,"left_children":[1,3,5,7,9,11,13,-1,-1,-1,-1,-1,-1,-1,-1],"loss_changes":[1.0213944E10,2.926088E9,1.4952648E9,1.8809733E9,1.3060152E9,4.3365466E8,6.2922394E8,0E0,0E0,0E0,0E0,0E0,0E0,0E0,0E0],"parents":[2147483647,0,0,1,1,2,2,3,3,4,4,5,5,6,6],"right_children":[2,4,6,8,10,12,14,-1,-1,-1,-1,-1,-1,-1,-1],"split_conditions":[4.5022E4,1.8519E4,4.5409E4,5E0,6.6367E4,1E0,1E-45,-3.701181E2,-7.5220184E1,-1.1515956E2,8.803961E1,3.238919E1,2.2658609E2,1.6089496E2,4.3274823E2],"split_indices":[7,7,8,1,8,2,6,0,0,0,0,0,0,0,0],"split_type":[0,0,0,0,0,0,1,0,0,0,0,0,0,0,0],"sum_hessian":[6.4E2,4.24E2,2.16E2,1.87E2,2.37E2,9.9E1,1.17E2,1.07E2,8E1,1.24E2,1.13E2,7.1E1,2.8E1,4.4E1,7.3E1],"tree_param":{"num_deleted":"0","num_feature":"13","num_nodes":"15","size_leaf_vector":"1"}},{"base_weights":[4.3856453E1,-3.3070056E3,4.3175854E3,-5.6257427E3,-1.0086157E3,2.1681165E3,8.0095127E3,-3.9472406E2,-7.863651E1,-2.3238293E2,1.666035E1,1.8810888E1,2.4093341E2,1.1488635E2,4.8067258E2],"categories":[],"categories_nodes":[],"categories_segments":[],"categories_sizes":[],"default_left":[1,1,0,0,0,0,0,0,0,0,0,0,0,0,0],"id":23,"left_children":[1,3,5,7,9,11,13,-1,-1,-1,-1,-1,-1,-1,-1],"loss_changes":[9.451223E9,1.9151148E9,2.127682E9,2.067224E9,1.153609E9,1.0760332E9,1.2290499E9,0E0,0E0,0E0,0E0,0E0,0E0,0E0,0E0],"parents":[2147483647,0,0,1,1,2,2,3,3,4,4,5,5,6,6],"right_children":[2,4,6,8,10,12,14,-1,-1,-1,-1,-1,-1,-1,-1],"split_conditions":[4.0556E4,1.5244E4,1E0,4E0,3.0611E4,5.7373E4,4.2646E4,-3.9472406E2,-7.863651E1,-2.3238293E2,1.666035E1,1.8810888E1,2.4093341E2,1.1488635E2,4.8067258E2],"split_indices":[7,7,3,1,8,7,8,0,0,0,0,0,0,0,0],"split_type":[0,0,0,0,0,0,0,0,0,0,0,0,0,0,0],"sum_hessian":[6.4E2,3.6E2,2.8E2,1.72E2,1.88E2,1.87E2,9.3E1,8.8E1,8.4E1,4E1,1.48E2,1.28E2,5.9E1,3.7E1,5.6E1],"tree_param":{"num_deleted":"0","num_feature":"13","num_nodes":"15","size_leaf_vector":"1"}},{"base_weights":[4.444004E1,-2.5929983E3,5.1072935E3,-4.7622305E3,8.614235E1,3.0615962E3,8.668228E3,-3.157278E2,-8.0685875E1,1.9946252E2,-3.993261E1,-5.5168793E1,1.8505653E2,1.3872559E2,4.8423016E2],"categories":[0,0,3,4],"categories_nodes":[3,4],"categories_segments":[0,1],"categories_sizes":[1,3],"default_left":[1,1,0,1,1,0,0,0,0,0,0,0,0,0,0],"id":24,"left_children":[1,3,5,7,9,11,13,-1,-1,-1,-1,-1,-1,-1,-1],"loss_changes":[8.81186E9,2.5263752E9,1.3809198E9,1.4803738E9,9.025276E8,7.667548E8,5.68172E8,0E0,0E0,0E0,0E0,0E0,0E0,0E0,0E0],"parents":[2147483647,0,0,1,1,2,2,3,3,4,4,5,5,6,6],"right_children":[2,4,6,8,10,12,14,-1,-1,-1,-1,-1,-1,-1,-1],"split_conditions":[4.5022E4,2.7056E4,1E0,1E-45,1E-45,3.489E4,4.2737E4,-3.157278E2,-8.0685875E1,1.9946252E2,-3.993261E1,-5.5168793E1,1.8505653E2,1.3872559E2,4.8423016E2],"split_indices":[7,7,3,0,12,8,8,0,0,0,0,0,0,0,0],"split_type":[0,0,0,1,1,0,0,0,0,0,0,0,0,0,0],"sum_hessian":[6.4E2,4.24E2,2.16E2,2.3E2,1.94E2,1.49E2,6.7E1,1.23E2,1.07E2,2.9E1,1.65E2,2.9E1,1.2E2,2.5E1,4.2E1],"tree_param":{"num_deleted":"0","num_feature":"13","num_nodes":"15","size_leaf_vector":"1"}},{"base_weights":[5.037863E1,-2.481771E3,4.9107773E3,-4.5644473E3,9.008684E1,2.9319944E3,8.359061E3,1.7464401E2,-2.312821E2,-7.388761E1,1.1099007E2,-5.332279E1,1.7736964E2,1.3426651E2,4.6663025E2],"categories":[0,2,3,4],"categories_nodes":[3],"categories_segments":[0],"categories_sizes":[4],"default_left":[1,1,0,1,0,0,0,0,0,0,0,0,0,0,0],"id":25,"left_children":[1,3,5,7,9,11,13,-1,-1,-1,-1,-1,-1,-1,-1],"loss_changes":[8.121594E9,2.3287713E9,1.2969907E9,1.3652511E9,8.8014906E8,7.0755584E8,5.2274125E8,0E0,0E0,0E0,0E0,0E0,0E0,0E0,0E0],"parents":[2147483647,0,0,1,1,2,2,3,3,4,4,5,5,6,6],"right_children":[2,4,6,8,10,12,14,-1,-1,-1,-1,-1,-1,-1,-1],"split_conditions":[4.5022E4,2.7056E4,1E0,1E-45,6.6367E4,3.489E4,4.2737E4,1.7464401E2,-2.312821E2,-7.388761E1,1.1099007E2,-5.332279E1,1.7736964E2,1.3426651E2,4.6663025E2],"split_indices":[7,7,3,10,8,8,8,0,0,0,0,0,0,0,0],"split_type":[0,0,0,1,0,0,0,0,0,0,0,0,0,0,0],"sum_hessian":[6.4E2,4.24E2,2.16E2,2.3E2,1.94E2,1.49E2,6.7E1,1.1E1,2.19E2,1.14E2,8E1,2.9E1,1.2E2,2.5E1,4.2E1],"tree_param":{"num_deleted":"0","num_feature":"13","num_nodes":"15","size_leaf_vector":"1"}},{"base_weights":[5.8963776E1,-3.6817542E3,3.099249E3,-5.438286E3,-1.02046027E3,1.0372994E2,5.291019E3,-3.5062357E2,-9.6085625E1,-1.5310457E2,9.632934E1,-9.214793E1,9.2459885E1,1.3929266E2,3.8744263E2],"categories":[0,0],"categories_nodes":[1,2],"categories_segments":[0,1],"categories_sizes":[1,1],"default_left":[1,1,1,1,0,0,0,0,0,0,0,0,0,0,0],"id":26,"left_children":[1,3,5,7,9,11,13,-1,-1,-1,-1,-1,-1,-1,-1],"loss_changes":[7.506458E9,1.328194E9,2.384344E9,1.2017085E9,1.051647E9,7.30441E8,1.263725E9,0E0,0E0,0E0,0E0,0E0,0E0,0E0,0E0],"parents":[2147483647,0,0,1,1,2,2,3,3,4,4,5,5,6,6],"right_children":[2,4,6,8,10,12,14,-1,-1,-1,-1,-1,-1,-1,-1],"split_conditions":[3.3178E4,1E-45,1E-45,1.5244E4,2E0,4.0066E4,1E0,-3.5062357E2,-9.6085625E1,-1.5310457E2,9.632934E1,-9.214793E1,9.2459885E1,1.3929266E2,3.8744263E2],"split_indices":[7,0,0,7,1,8,3,0,0,0,0,0,0,0,0],"split_type":[0,1,1,0,0,0,0,0,0,0,0,0,0,0,0],"sum_hessian":[6.4E2,2.86E2,3.54E2,1.66E2,1.2E2,1.54E2,2E2,8.9E1,7.7E1,6.8E1,5.2E1,7.3E1,8.1E1,1.32E2,6.8E1],"tree_param":{"num_deleted":"0","num_feature":"13","num_nodes":"15","size_leaf_vector":"1"}},{"base_weights":[5.6673115E1,-2.29866E3,4.577243E3,-4.8351245E3,-4.489496E2,2.0065319E3,6.8006724E3,-3.51104E2,-5.5228E1,-1.1027968E2,7.003355E1,-1.3519365E0,1.6162453E2,3.4239145E2,-2.3233711E1],"categories":[0],"categories_nodes":[5],"categories_segments":[0],"categories_sizes":[1],"default_left":[1,1,0,0,0,1,0,0,0,0,0,0,0,0,0],"id":27,"left_children":[1,3,5,7,9,11,13,-1,-1,-1,-1,-1,-1,-1,-1],"loss_changes":[7.026059E9,2.0144963E9,1.1553034E9,1.852566E9,1.0897901E9,3.8524125E8,7.3103104E8,0E0,0E0,0E0,0E0,0E0,0E0,0E0,0E0],"parents":[2147483647,0,0,1,1,2,2,3,3,4,4,5,5,6,6],"right_children":[2,4,6,8,10,12,14,-1,-1,-1,-1,-1,-1,-1,-1],"split_conditions":[4.5022E4,1.5244E4,4.7508E4,4E0,6.6367E4,1E-45,2.1E1,-3.51104E2,-5.5228E1,-1.1027968E2,7.003355E1,-1.3519365E0,1.6162453E2,3.4239145E2,-2.3233711E1],"split_indices":[7,7,8,1,8,0,1,0,0,0,0,0,0,0,0],"split_type":[0,0,0,0,0,1,0,0,0,0,0,0,0,0,0],"sum_hessian":[6.4E2,4.24E2,2.16E2,1.72E2,2.52E2,1.09E2,1.07E2,8.8E1,8.4E1,1.25E2,1.27E2,5.2E1,5.7E1,9.6E1,1.1E1],"tree_param":{"num_deleted":"0","num_feature":"13","num_nodes":"15","size_leaf_vector":"1"}},{"base_weights":[5.462784E1,-2.7235376E3,3.5973035E3,-4.3697695E3,-1.8512524E2,1.6854615E3,6.904671E3,-3.2672458E2,-8.488639E1,-1.0951631E2,1.249293E2,5.280334E0,2.0598386E2,1.02001335E2,4.170314E2],"categories":[0],"categories_nodes":[1],"categories_segments":[0],"categories_sizes":[1],"default_left":[1,1,0,1,0,0,0,0,0,0,0,0,0,0,0],"id":28,"left_children":[1,3,5,7,9,11,13,-1,-1,-1,-1,-1,-1,-1,-1],"loss_changes":[6.4953646E9,1.5380677E9,1.7173335E9,1.4711196E9,1.1063314E9,8.8800704E8,9.1861094E8,0E0,0E0,0E0,0E0,0E0,0E0,0E0,0E0],"parents":[2147483647,0,0,1,1,2,2,3,3,4,4,5,5,6,6],"right_children":[2,4,6,8,10,12,14,-1,-1,-1,-1,-1,-1,-1,-1],"split_conditions":[4.0556E4,1E-45,1E0,1.6043E4,3E0,5.7373E4,4.2737E4,-3.2672458E2,-8.488639E1,-1.0951631E2,1.249293E2,5.280334E0,2.0598386E2,1.02001335E2,4.170314E2],"split_indices":[7,0,3,7,1,7,8,0,0,0,0,0,0,0,0],"split_type":[0,1,0,0,0,0,0,0,0,0,0,0,0,0,0],"sum_hessian":[6.4E2,3.6E2,2.8E2,2.14E2,1.46E2,1.87E2,9.3E1,9E1,1.24E2,8.4E1,6.2E1,1.28E2,5.9E1,3.8E1,5.5E1],"tree_param":{"num_deleted":"0","num_feature":"13","num_nodes":"15","size_leaf_vector":"1"}},{"base_weights":[5.730931E1,-2.1261636E3,4.2478184E3,-4.4868345E3,-4.0515286E2,1.038836E4,3.182336E3,-3.2251175E2,-4.2788166E1,-1.04565384E2,6.817175E1,1.2581816E1,4.7922736E2,2.0224571E2,2.6395033E1],"categories":[1,2,3,4],"categories_nodes":[2],"categories_segments":[0],"categories_sizes":[4],"default_left":[1,1,1,0,0,0,0,0,0,0,0,0,0,0,0],"id":29,"left_children":[1,3,5,7,9,11,13,-1,-1,-1,-1,-1,-1,-1,-1],"loss_changes":[6.037728E9,1.7450456E9,1.1480305E9,1.6566177E9,1.0003368E9,4.6766336E7,6.786121E8,0E0,0E0,0E0,0E0,0E0,0E0,0E0,0E0],"parents":[2147483647,0,0,1,1,2,2,3,3,4,4,5,5,6,6],"right_children":[2,4,6,8,10,12,14,-1,-1,-1,-1,-1,-1,-1,-1],"split_conditions":[4.5022E4,1.5244E4,1E-45,5E0,6.6367E4,-9E0,1.3E1,-3.2251175E2,-4.2788166E1,-1.04565384E2,6.817175E1,1.2581816E1,4.7922736E2,2.0224571E2,2.6395033E1],"split_indices":[7,7,12,1,8,1,1,0,0,0,0,0,0,0,0],"split_type":[0,0,1,0,0,0,0,0,0,0,0,0,0,0,0],"sum_hessian":[6.4E2,4.24E2,2.16E2,1.72E2,2.52E2,1.9E1,1.97E2,9.2E1,8E1,1.25E2,1.27E2,1E0,1.8E1,1.26E2,7.1E1],"tree_param":{"num_deleted":"0","num_feature":"13","num_nodes":"15","size_leaf_vector":"1"}},{"base_weights":[5.963469E1,-3.1899612E3,2.7005276E3,-4.821081E3,-7.36286E2,2.5286203E1,4.6611626E3,-3.0564136E2,-8.859052E1,-1.2946863E2,9.340702E1,-8.556761E1,8.009637E1,1.18220604E2,3.4949506E2],"categories":[0,0],"categories_nodes":[1,2],"categories_segments":[0,1],"categories_sizes":[1,1],"default_left":[1,1,1,1,0,0,0,0,0,0,0,0,0,0,0],"id":30,"left_children":[1,3,5,7,9,11,13,-1,-1,-1,-1,-1,-1,-1,-1],"loss_changes":[5.6643374E9,1.1491602E9,1.9080591E9,8.5574016E8,8.4230886E8,5.882975E8,1.1224151E9,0E0,0E0,0E0,0E0,0E0,0E0,0E0,0E0],"parents":[2147483647,0,0,1,1,2,2,3,3,4,4,5,5,6,6],"right_children":[2,4,6,8,10,12,14,-1,-1,-1,-1,-1,-1,-1,-1],"split_conditions":[3.3178E4,1E-45,1E-45,1.6043E4,2E0,4.0066E4,1E0,-3.0564136E2,-8.859052E1,-1.2946863E2,9.340702E1,-8.556761E1,8.009637E1,1.18220604E2,3.4949506E2],"split_indices":[7,0,0,7,1,8,3,0,0,0,0,0,0,0,0],"split_type":[0,1,1,0,0,0,0,0,0,0,0,0,0,0,0],"sum_hessian":[6.4E2,2.86E2,3.54E2,1.66E2,1.2E2,1.54E2,2E2,9E1,7.6E1,6.8E1,5.2E1,7.3E1,8.1E1,1.32E2,6.8E1],"tree_param":{"num_deleted":"0","num_feature":"13","num_nodes":"15","size_leaf_vector":"1"}},{"base_weights":[5.744248E1,-1.9772744E3,3.962282E3,-3.6536228E3,9.182049E1,9.88542E3,2.9410508E3,1.6542068E2,-1.8748038E2,1.858956E2,-3.6611263E1,1.1100586E1,4.5636865E2,5.8351696E1,2.2770258E2],"categories":[1,2,3,4,0,2,3,4,0,3,4],"categories_nodes":[2,3,4],"categories_segments":[0,4,8],"categories_sizes":[4,4,3],"default_left":[1,1,1,1,1,0,0,0,0,0,0,0,0,0,0],"id":31,"left_children":[1,3,5,7,9,11,13,-1,-1,-1,-1,-1,-1,-1,-1],"loss_changes":[5.242755E9,1.5086977E9,1.0763018E9,1.05488666E9,7.7966125E8,4.6560256E7,6.556462E8,0E0,0E0,0E0,0E0,0E0,0E0,0E0,0E0],"parents":[2147483647,0,0,1,1,2,2,3,3,4,4,5,5,6,6],"right_children":[2,4,6,8,10,12,14,-1,-1,-1,-1,-1,-1,-1,-1],"split_conditions":[4.5022E4,2.7056E4,1E-45,1E-45,1E-45,-9E0,5.7373E4,1.6542068E2,-1.8748038E2,1.858956E2,-3.6611263E1,1.1100586E1,4.5636865E2,5.8351696E1,2.2770258E2],"split_indices":[7,7,12,10,12,1,7,0,0,0,0,0,0,0,0],"split_type":[0,0,1,1,1,0,0,0,0,0,0,0,0,0,0],"sum_hessian":[6.4E2,4.24E2,2.16E2,2.3E2,1.94E2,1.9E1,1.97E2,1.1E1,2.19E2,2.9E1,1.65E2,1E0,1.8E1,1.2E2,7.7E1],"tree_param":{"num_deleted":"0","num_feature":"13","num_nodes":"15","size_leaf_vector":"1"}},{"base_weights":[6.8407326E1,-1.8853661E3,3.8173215E3,-3.996974E3,-3.4655954E2,9.601775E3,2.8225227E3,-2.9878668E2,-3.674555E1,-9.973748E1,6.845678E1,1.1055171E1,4.431666E2,3.571322E1,1.9980159E2],"categories":[1,2,3,4],"categories_nodes":[2],"categories_segments":[0],"categories_sizes":[4],"default_left":[1,1,1,0,0,0,0,0,0,0,0,0,0,0,0],"id":32,"left_children":[1,3,5,7,9,11,13,-1,-1,-1,-1,-1,-1,-1,-1],"loss_changes":[4.8329165E9,1.3963642E9,1.0294623E9,1.4754762E9,9.487544E8,4.2642944E7,6.4408256E8,0E0,0E0,0E0,0E0,0E0,0E0,0E0,0E0],"parents":[2147483647,0,0,1,1,2,2,3,3,4,4,5,5,6,6],"right_children":[2,4,6,8,10,12,14,-1,-1,-1,-1,-1,-1,-1,-1],"split_conditions":[4.5022E4,1.5244E4,1E-45,4E0,6.6367E4,-9E0,4.5409E4,-2.9878668E2,-3.674555E1,-9.973748E1,6.845678E1,1.1055171E1,4.431666E2,3.571322E1,1.9980159E2],"split_indices":[7,7,12,1,8,1,8,0,0,0,0,0,0,0,0],"split_type":[0,0,1,0,0,0,0,0,0,0,0,0,0,0,0],"sum_hessian":[6.4E2,4.24E2,2.16E2,1.72E2,2.52E2,1.9E1,1.97E2,8.8E1,8.4E1,1.25E2,1.27E2,1E0,1.8E1,9.4E1,1.03E2],"tree_param":{"num_deleted":"0","num_feature":"13","num_nodes":"15","size_leaf_vector":"1"}},{"base_weights":[7.02972E1,-2.8377202E3,2.4331301E3,-4.4138706E3,-4.855613E2,8.1069025E2,5.3258857E3,-2.786869E2,-8.243164E1,-1.12328735E2,9.5501015E1,-1.6627338E1,1.7435638E2,6.481651E1,3.5691287E2],"categories":[0],"categories_nodes":[1],"categories_segments":[0],"categories_sizes":[1],"default_left":[1,1,0,1,0,0,0,0,0,0,0,0,0,0,0],"id":33,"left_children":[1,3,5,7,9,11,13,-1,-1,-1,-1,-1,-1,-1,-1],"loss_changes":[4.535298E9,1.0759406E9,1.6651866E9,6.950774E8,7.346099E8,9.0023245E8,1.1917148E9,0E0,0E0,0E0,0E0,0E0,0E0,0E0,0E0],"parents":[2147483647,0,0,1,1,2,2,3,3,4,4,5,5,6,6],"right_children":[2,4,6,8,10,12,14,-1,-1,-1,-1,-1,-1,-1,-1],"split_conditions":[3.3178E4,1E-45,1E0,1.6043E4,2E0,5.7373E4,4.2987E4,-2.786869E2,-8.243164E1,-1.12328735E2,9.5501015E1,-1.6627338E1,1.7435638E2,6.481651E1,3.5691287E2],"split_indices":[7,0,3,7,1,7,8,0,0,0,0,0,0,0,0],"split_type":[0,1,0,0,0,0,0,0,0,0,0,0,0,0,0],"sum_hessian":[6.4E2,2.86E2,3.54E2,1.66E2,1.2E2,2.35E2,1.19E2,9E1,7.6E1,6.8E1,5.2E1,1.76E2,5.9E1,5.4E1,6.5E1],"tree_param":{"num_deleted":"0","num_feature":"13","num_nodes":"15","size_leaf_vector":"1"}},{"base_weights":[7.023443E1,-2.1658342E3,2.9207312E3,-3.636843E3,8.5212715E1,1.2476493E3,5.8371274E3,-2.6839755E2,-7.472577E1,5.1726074E1,-2.1455025E2,-3.675507E0,1.6764749E2,8.477479E1,3.5362848E2],"categories":[0],"categories_nodes":[1],"categories_segments":[0],"categories_sizes":[1],"default_left":[1,1,0,1,0,0,0,0,0,0,0,0,0,0,0],"id":34,"left_children":[1,3,5,7,9,11,13,-1,-1,-1,-1,-1,-1,-1,-1],"loss_changes":[4.206298E9,1.2282872E9,1.3421834E9,9.313188E8,8.6051366E8,6.519397E8,6.749814E8,0E0,0E0,0E0,0E0,0E0,0E0,0E0,0E0],"parents":[2147483647,0,0,1,1,2,2,3,3,4,4,5,5,6,6],"right_children":[2,4,6,8,10,12,14,-1,-1,-1,-1,-1,-1,-1,-1],"split_conditions":[4.0556E4,1E-45,1E0,1.5244E4,1E0,5.7373E4,4.2737E4,-2.6839755E2,-7.472577E1,5.1726074E1,-2.1455025E2,-3.675507E0,1.6764749E2,8.477479E1,3.5362848E2],"split_indices":[7,0,3,7,5,7,8,0,0,0,0,0,0,0,0],"split_type":[0,1,0,0,0,0,0,0,0,0,0,0,0,0,0],"sum_hessian":[6.4E2,3.6E2,2.8E2,2.14E2,1.46E2,1.87E2,9.3E1,8.9E1,1.25E2,1.26E2,2E1,1.28E2,5.9E1,3.8E1,5.5E1],"tree_param":{"num_deleted":"0","num_feature":"13","num_nodes":"15","size_leaf_vector":"1"}},{"base_weights":[6.8557526E1,-1.6919197E3,3.4462678E3,-9.387945E2,-5.8992227E3,8.950101E3,2.5087085E3,-7.9735217E0,-2.4767107E2,-3.4976172E2,-1.1574462E2,1.0397988E1,4.1305212E2,1.6858089E2,5.4515343E0],"categories":[1,3,1,2,3,4],"categories_nodes":[1,2],"categories_segments":[0,2],"categories_sizes":[2,4],"default_left":[1,1,1,0,1,0,0,0,0,0,0,0,0,0,0],"id":35,"left_children":[1,3,5,7,9,11,13,-1,-1,-1,-1,-1,-1,-1,-1],"loss_changes":[3.9234586E9,1.3197952E9,9.4165504E8,1.3114007E9,1.9895731E8,3.6642304E7,6.070784E8,0E0,0E0,0E0,0E0,0E0,0E0,0E0,0E0],"parents":[2147483647,0,0,1,1,2,2,3,3,4,4,5,5,6,6],"right_children":[2,4,6,8,10,12,14,-1,-1,-1,-1,-1,-1,-1,-1],"split_conditions":[4.5022E4,1E-45,1E-45,1E0,2.1833E4,-9E0,1.3E1,-7.9735217E0,-2.4767107E2,-3.4976172E2,-1.1574462E2,1.0397988E1,4.1305212E2,1.6858089E2,5.4515343E0],"split_indices":[7,9,12,5,7,1,1,0,0,0,0,0,0,0,0],"split_type":[0,1,1,0,0,0,0,0,0,0,0,0,0,0,0],"sum_hessian":[6.4E2,4.24E2,2.16E2,3.7E2,5.4E1,1.9E1,1.97E2,3.26E2,4.4E1,2.6E1,2.8E1,1E0,1.8E1,1.26E2,7.1E1],"tree_param":{"num_deleted":"0","num_feature":"13","num_nodes":"15","size_leaf_vector":"1"}},{"base_weights":[6.3569103E1,-3.0679287E3,1.8514852E3,3.535671E3,-3.5395327E3,-4.5073102E2,3.9054983E3,1.6727164E2,1.3583585E1,-2.0031715E2,3.2353645E1,-6.25736E1,8.398681E1,9.971584E1,2.9432367E2],"categories":[0,2,3,4,0],"categories_nodes":[1,2],"categories_segments":[0,4],"categories_sizes":[4,1],"default_left":[1,1,1,0,0,0,0,0,0,0,0,0,0,0,0],"id":36,"left_children":[1,3,5,7,9,11,13,-1,-1,-1,-1,-1,-1,-1,-1],"loss_changes":[3.6960573E9,8.725742E8,2.0036952E9,1.099568E6,9.2134886E8,4.7671498E8,8.478817E8,0E0,0E0,0E0,0E0,0E0,0E0,0E0,0E0],"parents":[2147483647,0,0,1,1,2,2,3,3,4,4,5,5,6,6],"right_children":[2,4,6,8,10,12,14,-1,-1,-1,-1,-1,-1,-1,-1],"split_conditions":[2.7056E4,1E-45,1E-45,1.4E1,1.5E1,1E0,1E0,1.6727164E2,1.3583585E1,-2.0031715E2,3.2353645E1,-6.25736E1,8.398681E1,9.971584E1,2.9432367E2],"split_indices":[7,10,0,1,1,2,3,0,0,0,0,0,0,0,0],"split_type":[0,1,1,0,0,0,0,0,0,0,0,0,0,0,0],"sum_hessian":[6.4E2,2.3E2,4.1E2,1.1E1,2.19E2,1.97E2,2.13E2,9E0,2E0,1.8E2,3.9E1,1.43E2,5.4E1,1.41E2,7.2E1],"tree_param":{"num_deleted":"0","num_feature":"13","num_nodes":"15","size_leaf_vector":"1"}},{"base_weights":[6.729845E1,-1.5769954E3,3.2219512E3,-8.536108E2,-5.62567E3,8.520664E3,2.3239648E3,-5.88409E0,-2.3369714E2,-3.318842E2,-1.1194883E2,9.151396E0,3.9352704E2,1.5761446E2,2.618776E0],"categories":[1,3,1,2,3,4],"categories_nodes":[1,2],"categories_segments":[0,2],"categories_sizes":[2,4],"default_left":[1,1,1,0,1,0,0,0,0,0,0,0,0,0,0],"id":37,"left_children":[1,3,5,7,9,11,13,-1,-1,-1,-1,-1,-1,-1,-1],"loss_changes":[3.4224758E9,1.2230492E9,8.773192E8,1.1852398E9,1.6786662E8,3.632781E7,5.5072845E8,0E0,0E0,0E0,0E0,0E0,0E0,0E0,0E0],"parents":[2147483647,0,0,1,1,2,2,3,3,4,4,5,5,6,6],"right_children":[2,4,6,8,10,12,14,-1,-1,-1,-1,-1,-1,-1,-1],"split_conditions":[4.5022E4,1E-45,1E-45,1E0,2.1833E4,-9E0,1.3E1,-5.88409E0,-2.3369714E2,-3.318842E2,-1.1194883E2,9.151396E0,3.9352704E2,1.5761446E2,2.618776E0],"split_indices":[7,9,12,5,7,1,1,0,0,0,0,0,0,0,0],"split_type":[0,1,1,0,0,0,0,0,0,0,0,0,0,0,0],"sum_hessian":[6.4E2,4.24E2,2.16E2,3.7E2,5.4E1,1.9E1,1.97E2,3.26E2,4.4E1,2.6E1,2.8E1,1E0,1.8E1,1.26E2,7.1E1],"tree_param":{"num_deleted":"0","num_feature":"13","num_nodes":"15","size_leaf_vector":"1"}},{"base_weights":[6.2415913E1,-2.3855784E3,2.0513806E3,-3.8184028E3,-2.622408E2,5.085556E2,4.5411772E3,-2.4561757E2,-6.810996E1,-2.6648715E2,2.435876E1,1.4952069E2,-1.223799E1,3.2207712E2,5.901296E1],"categories":[0,3,4],"categories_nodes":[1,5],"categories_segments":[0,1],"categories_sizes":[1,2],"default_left":[1,1,0,1,0,1,0,0,0,0,0,0,0,0,0],"id":38,"left_children":[1,3,5,7,9,11,13,-1,-1,-1,-1,-1,-1,-1,-1],"loss_changes":[3.2137702E9,8.90524E8,1.3751411E9,5.825567E8,6.232789E8,5.2740294E8,1.07214746E9,0E0,0E0,0E0,0E0,0E0,0E0,0E0,0E0],"parents":[2147483647,0,0,1,1,2,2,3,3,4,4,5,5,6,6],"right_children":[2,4,6,8,10,12,14,-1,-1,-1,-1,-1,-1,-1,-1],"split_conditions":[3.3178E4,1E-45,5.4003E4,1.5244E4,3.6112E4,1E-45,1.2E1,-2.4561757E2,-6.810996E1,-2.6648715E2,2.435876E1,1.4952069E2,-1.223799E1,3.2207712E2,5.901296E1],"split_indices":[7,0,8,7,8,12,1,0,0,0,0,0,0,0,0],"split_type":[0,1,0,0,0,1,0,0,0,0,0,0,0,0,0],"sum_hessian":[6.4E2,2.86E2,3.54E2,1.66E2,1.2E2,2.26E2,1.28E2,8.9E1,7.7E1,7E0,1.13E2,4.2E1,1.84E2,6.4E1,6.4E1],"tree_param":{"num_deleted":"0","num_feature":"13","num_nodes":"15","size_leaf_vector":"1"}},{"base_weights":[5.903042E1,-1.1504174E3,3.8662258E3,3.490208E3,-1.7077136E3,1.3054423E3,5.4539595E3,-2.0892189E0,1.6322726E2,-1.8483076E2,-1.7485605E1,1.3099309E2,-3.54132E1,2.781603E2,4.251237E1],"categories":[0,2,4],"categories_nodes":[1],"categories_segments":[0],"categories_sizes":[3],"default_left":[1,1,0,0,1,0,0,0,0,0,0,0,0,0,0],"id":39,"left_children":[1,3,5,7,9,11,13,-1,-1,-1,-1,-1,-1,-1,-1],"loss_changes":[3.037473E9,1.3552886E9,5.7526374E8,2.9318144E7,1.421158E9,2.7150454E8,2.5319014E8,0E0,0E0,0E0,0E0,0E0,0E0,0E0,0E0],"parents":[2147483647,0,0,1,1,2,2,3,3,4,4,5,5,6,6],"right_children":[2,4,6,8,10,12,14,-1,-1,-1,-1,-1,-1,-1,-1],"split_conditions":[4.9857E4,1E-45,4.5409E4,3.3021E4,1.5244E4,8E0,1.9E1,-2.0892189E0,1.6322726E2,-1.8483076E2,-1.7485605E1,1.3099309E2,-3.54132E1,2.781603E2,4.251237E1],"split_indices":[7,10,8,8,7,1,1,0,0,0,0,0,0,0,0],"split_type":[0,1,0,0,0,0,0,0,0,0,0,0,0,0,0],"sum_hessian":[6.4E2,4.91E2,1.49E2,4.7E1,4.44E2,6.4E1,8.5E1,2E0,4.5E1,1.5E2,2.94E2,3.4E1,3E1,7E1,1.5E1],"tree_param":{"num_deleted":"0","num_feature":"13","num_nodes":"15","size_leaf_vector":"1"}},{"base_weights":[6.2144005E1,-2.0158934E3,2.1383013E3,-5.1098726E3,-6.6127155E2,-9.2329315E2,3.5484617E3,1.5928751E1,-2.533104E2,-6.488651E1,5.997623E1,-1.3569092E2,1.0232606E2,8.5163956E1,2.7502457E2],"categories":[0,0,3],"categories_nodes":[0,3],"categories_segments":[0,1],"categories_sizes":[1,2],"default_left":[1,1,1,1,0,0,0,0,0,0,0,0,0,0,0],"id":40,"left_children":[1,3,5,7,9,11,13,-1,-1,-1,-1,-1,-1,-1,-1],"loss_changes":[2.8474222E9,1.3492909E9,1.4574872E9,3.008023E8,3.9437747E8,8.1770694E8,8.520663E8,0E0,0E0,0E0,0E0,0E0,0E0,0E0,0E0],"parents":[2147483647,0,0,1,1,2,2,3,3,4,4,5,5,6,6],"right_children":[2,4,6,8,10,12,14,-1,-1,-1,-1,-1,-1,-1,-1],"split_conditions":[1E-45,1.5244E4,2.3951E4,1E-45,1E0,5E0,1E0,1.5928751E1,-2.533104E2,-6.488651E1,5.997623E1,-1.3569092E2,1.0232606E2,8.5163956E1,2.7502457E2],"split_indices":[0,7,7,9,2,1,3,0,0,0,0,0,0,0,0],"split_type":[1,0,0,1,0,0,0,0,0,0,0,0,0,0,0],"sum_hessian":[6.4E2,3.2E2,3.2E2,8.9E1,2.31E2,1.02E2,2.18E2,8E0,8.1E1,1.68E2,6.3E1,6.2E1,4E1,1.43E2,7.5E1],"tree_param":{"num_deleted":"0","num_feature":"13","num_nodes":"15","size_leaf_vector":"1"}},{"base_weights":[6.064825E1,-1.0688441E3,3.6158066E3,-4.4189075E2,-5.280699E3,1.1841842E3,5.129291E3,6.6552787E0,-2.1025636E2,-1.3140756E2,-3.423387E2,1.2222613E2,-3.586427E1,6.64127E1,2.770372E2],"categories":[1,3,0],"categories_nodes":[1,6],"categories_segments":[0,2],"categories_sizes":[2,1],"default_left":[1,1,0,0,0,0,1,0,0,0,0,0,0,0,0],"id":41,"left_children":[1,3,5,7,9,11,13,-1,-1,-1,-1,-1,-1,-1,-1],"loss_changes":[2.6487406E9,1.2996183E9,5.244087E8,1.1222124E9,1.2936013E8,2.4624307E8,2.656151E8,0E0,0E0,0E0,0E0,0E0,0E0,0E0,0E0],"parents":[2147483647,0,0,1,1,2,2,3,3,4,4,5,5,6,6],"right_children":[2,4,6,8,10,12,14,-1,-1,-1,-1,-1,-1,-1,-1],"split_conditions":[4.9857E4,1E-45,4.5409E4,1E0,-2E0,8E0,1E-45,6.6552787E0,-2.1025636E2,-1.3140756E2,-3.423387E2,1.2222613E2,-3.586427E1,6.64127E1,2.770372E2],"split_indices":[7,9,8,5,1,1,6,0,0,0,0,0,0,0,0],"split_type":[0,1,0,0,0,0,1,0,0,0,0,0,0,0,0],"sum_hessian":[6.4E2,4.91E2,1.49E2,4.37E2,5.4E1,6.4E1,8.5E1,3.92E2,4.5E1,3.8E1,1.6E1,3.4E1,3E1,2.4E1,6.1E1],"tree_param":{"num_deleted":"0","num_feature":"13","num_nodes":"15","size_leaf_vector":"1"}},{"base_weights":[5.4109894E1,-1.9145745E3,2.0211576E3,-4.8611904E3,-6.246917E2,-8.351127E2,3.3355947E3,-3.0637667E0,-2.4536613E2,-6.1711277E1,5.7668232E1,-1.2679377E2,9.840276E1,7.829544E1,2.616936E2],"categories":[0,0,4],"categories_nodes":[0,3],"categories_segments":[0,1],"categories_sizes":[1,2],"default_left":[1,1,1,1,0,0,0,0,0,0,0,0,0,0,0],"id":42,"left_children":[1,3,5,7,9,11,13,-1,-1,-1,-1,-1,-1,-1,-1],"loss_changes":[2.555819E9,1.2238875E9,1.2668064E9,2.7690675E8,3.605916E8,7.325932E8,8.010145E8,0E0,0E0,0E0,0E0,0E0,0E0,0E0,0E0],"parents":[2147483647,0,0,1,1,2,2,3,3,4,4,5,5,6,6],"right_children":[2,4,6,8,10,12,14,-1,-1,-1,-1,-1,-1,-1,-1],"split_conditions":[1E-45,1.5244E4,2.3951E4,1E-45,1E0,5E0,1E0,-3.0637667E0,-2.4536613E2,-6.1711277E1,5.7668232E1,-1.2679377E2,9.840276E1,7.829544E1,2.616936E2],"split_indices":[0,7,7,10,2,1,3,0,0,0,0,0,0,0,0],"split_type":[1,0,0,1,0,0,0,0,0,0,0,0,0,0,0],"sum_hessian":[6.4E2,3.2E2,3.2E2,8.9E1,2.31E2,1.02E2,2.18E2,1.1E1,7.8E1,1.68E2,6.3E1,6.2E1,4E1,1.43E2,7.5E1],"tree_param":{"num_deleted":"0","num_feature":"13","num_nodes":"15","size_leaf_vector":"1"}},{"base_weights":[5.258384E1,-1.8360696E3,1.9396469E3,-4.6675312E3,-5.9674835E2,6.2727104E3,1.0536926E3,2.0384336E1,-2.3253645E2,9.3049065E1,-5.0350437E1,3.2765964E2,6.731532E1,-7.041612E1,1.06015884E2],"categories":[0,0,2,3,4,0,3,0,4],"categories_nodes":[0,2,3,4],"categories_segments":[0,1,5,7],"categories_sizes":[1,4,2,2],"default_left":[1,1,1,1,1,0,1,0,0,0,0,0,0,0,0],"id":43,"left_children":[1,3,5,7,9,11,13,-1,-1,-1,-1,-1,-1,-1,-1],"loss_changes":[2.3522184E9,1.1301414E9,1.200733E9,2.7685018E8,3.5843165E8,1.5124058E8,1.0120821E9,0E0,0E0,0E0,0E0,0E0,0E0,0E0,0E0],"parents":[2147483647,0,0,1,1,2,2,3,3,4,4,5,5,6,6],"right_children":[2,4,6,8,10,12,14,-1,-1,-1,-1,-1,-1,-1,-1],"split_conditions":[1E-45,1.5244E4,1E-45,1E-45,1E-45,1.3E1,2.3951E4,2.0384336E1,-2.3253645E2,9.3049065E1,-5.0350437E1,3.2765964E2,6.731532E1,-7.041612E1,1.06015884E2],"split_indices":[0,7,10,9,10,1,7,0,0,0,0,0,0,0,0],"split_type":[1,0,1,1,1,0,0,0,0,0,0,0,0,0,0],"sum_hessian":[6.4E2,3.2E2,3.2E2,8.9E1,2.31E2,4.4E1,2.76E2,8E0,8.1E1,3.3E1,1.98E2,3.2E1,1.2E1,9.1E1,1.85E2],"tree_param":{"num_deleted":"0","num_feature":"13","num_nodes":"15","size_leaf_vector":"1"}},{"base_weights":[5.4235268E1,-1.082294E3,2.9694248E3,-4.5809274E2,-5.0192437E3,7.0721814E2,4.516802E3,5.8628283E0,-2.0164626E2,-1.2389053E2,-3.272551E2,8.406063E1,-3.8327477E1,5.510049E1,2.6109723E2],"categories":[1,3,0],"categories_nodes":[1,6],"categories_segments":[0,2],"categories_sizes":[2,1],"default_left":[1,1,0,0,0,0,1,0,0,0,0,0,0,0,0],"id":44,"left_children":[1,3,5,7,9,11,13,-1,-1,-1,-1,-1,-1,-1,-1],"loss_changes":[2.1857185E9,1.14429E9,6.1564096E8,1.0023518E9,1.2654336E8,1.7334742E8,3.8598733E8,0E0,0E0,0E0,0E0,0E0,0E0,0E0,0E0],"parents":[2147483647,0,0,1,1,2,2,3,3,4,4,5,5,6,6],"right_children":[2,4,6,8,10,12,14,-1,-1,-1,-1,-1,-1,-1,-1],"split_conditions":[4.7721E4,1E-45,4.5409E4,1E0,-2E0,8E0,1E-45,5.8628283E0,-2.0164626E2,-1.2389053E2,-3.272551E2,8.406063E1,-3.8327477E1,5.510049E1,2.6109723E2],"split_indices":[7,9,8,5,1,1,6,0,0,0,0,0,0,0,0],"split_type":[0,1,0,0,0,0,1,0,0,0,0,0,0,0,0],"sum_hessian":[6.4E2,4.65E2,1.75E2,4.11E2,5.4E1,7.7E1,9.8E1,3.67E2,4.4E1,3.8E1,1.6E1,4.3E1,3.4E1,3.3E1,6.5E1],"tree_param":{"num_deleted":"0","num_feature":"13","num_nodes":"15","size_leaf_vector":"1"}},{"base_weights":[4.740957E1,-1.7441545E3,1.83754E3,-4.437759E3,-5.6527747E2,-2.0122499E2,3.4267627E3,2.347115E0,-2.2522217E2,-5.7679962E1,5.666511E1,7.912103E1,-2.0828664E2,2.6563077E0,2.9001675E2],"categories":[0,0,4,0],"categories_nodes":[0,3,6],"categories_segments":[0,1,3],"categories_sizes":[1,2,1],"default_left":[1,1,0,1,0,0,1,0,0,0,0,0,0,0,0],"id":45,"left_children":[1,3,5,7,9,11,13,-1,-1,-1,-1,-1,-1,-1,-1],"loss_changes":[2.1166865E9,1.02280064E9,1.0761158E9,2.5472704E8,3.3118883E8,1.4173798E9,1.8866934E9,0E0,0E0,0E0,0E0,0E0,0E0,0E0,0E0],"parents":[2147483647,0,0,1,1,2,2,3,3,4,4,5,5,6,6],"right_children":[2,4,6,8,10,12,14,-1,-1,-1,-1,-1,-1,-1,-1],"split_conditions":[1E-45,1.5244E4,3E0,1E-45,1E0,-2E0,1E-45,2.347115E0,-2.2522217E2,-5.7679962E1,5.666511E1,7.912103E1,-2.0828664E2,2.6563077E0,2.9001675E2],"split_indices":[0,7,1,10,2,1,6,0,0,0,0,0,0,0,0],"split_type":[1,0,0,1,0,0,1,0,0,0,0,0,0,0,0],"sum_hessian":[6.4E2,3.2E2,3.2E2,8.9E1,2.31E2,1.44E2,1.76E2,1.1E1,7.8E1,1.68E2,6.3E1,1.04E2,4E1,8.8E1,8.8E1],"tree_param":{"num_deleted":"0","num_feature":"13","num_nodes":"15","size_leaf_vector":"1"}},{"base_weights":[4.4347435E1,-1.6724518E3,1.7598059E3,-4.260572E3,-5.3988184E2,2.3305496E3,-3.2391855E3,-2.2905472E2,-2.951599E1,8.852503E1,-4.645019E1,1.3150641E2,-1.437225E2,-6.2275238E1,-2.0392807E2],"categories":[0,1,0,4],"categories_nodes":[0,2,4],"categories_segments":[0,1,2],"categories_sizes":[1,1,2],"default_left":[1,1,1,0,1,0,0,0,0,0,0,0,0,0,0],"id":46,"left_children":[1,3,5,7,9,11,13,-1,-1,-1,-1,-1,-1,-1,-1],"loss_changes":[1.9437455E9,9.442981E8,1.0170272E9,2.6263603E8,3.1778592E8,1.0806975E9,2.840576E7,0E0,0E0,0E0,0E0,0E0,0E0,0E0,0E0],"parents":[2147483647,0,0,1,1,2,2,3,3,4,4,5,5,6,6],"right_children":[2,4,6,8,10,12,14,-1,-1,-1,-1,-1,-1,-1,-1],"split_conditions":[1E-45,1.5244E4,1E-45,1.5E1,1E-45,1E0,-2E0,-2.2905472E2,-2.951599E1,8.852503E1,-4.645019E1,1.3150641E2,-1.437225E2,-6.2275238E1,-2.0392807E2],"split_indices":[0,7,9,1,10,5,1,0,0,0,0,0,0,0,0],"split_type":[1,0,1,0,1,0,0,0,0,0,0,0,0,0,0],"sum_hessian":[6.4E2,3.2E2,3.2E2,8.9E1,2.31E2,2.92E2,2.8E1,6.9E1,2E1,3.3E1,1.98E2,2.68E2,2.4E1,2E1,8E0],"tree_param":{"num_deleted":"0","num_feature":"13","num_nodes":"15","size_leaf_vector":"1"}},{"base_weights":[3.4736614E1,5.584635E3,-4.603803E2,6.579487E3,1.1468556E3,-3.0677993E3,5.519151E2,3.4454723E1,3.1454788E2,1.19635216E2,-4.867071E1,-1.9815385E2,5.2031597E1,-1.4480045E2,5.5554626E1],"categories":[0,2,3,4],"categories_nodes":[0],"categories_segments":[0],"categories_sizes":[4],"default_left":[1,0,1,0,1,0,0,0,0,0,0,0,0,0,0],"id":47,"left_children":[1,3,5,7,9,11,13,-1,-1,-1,-1,-1,-1,-1,-1],"loss_changes":[1.8118172E9,1.6294157E8,1.6164581E9,4.670067E7,1.0286772E8,1.0156548E9,1.1848506E9,0E0,0E0,0E0,0E0,0E0,0E0,0E0,0E0],"parents":[2147483647,0,0,1,1,2,2,3,3,4,4,5,5,6,6],"right_children":[2,4,6,8,10,12,14,-1,-1,-1,-1,-1,-1,-1,-1],"split_conditions":[1E-45,1.3E1,1.5244E4,5.3116E4,5.1554E4,1.5E1,2.7572E4,3.4454723E1,3.1454788E2,1.19635216E2,-4.867071E1,-1.9815385E2,5.2031597E1,-1.4480045E2,5.5554626E1],"split_indices":[10,1,7,8,7,1,8,0,0,0,0,0,0,0,0],"split_type":[1,0,0,0,0,0,0,0,0,0,0,0,0,0,0],"sum_hessian":[6.4E2,4.4E1,5.96E2,3.2E1,1.2E1,1.61E2,4.35E2,4E0,2.8E1,6E0,6E0,1.22E2,3.9E1,6.1E1,3.74E2],"tree_param":{"num_deleted":"0","num_feature":"13","num_nodes":"15","size_leaf_vector":"1"}},{"base_weights":[3.6013565E1,-6.461556E2,3.8980112E3,-1.07558975E2,-4.6693184E3,1.7601997E3,5.6410063E3,1.1187959E2,-3.497203E1,-1.1883488E2,-3.048495E2,1.27076866E2,1.3326363E1,2.8916655E1,2.9616592E2],"categories":[1,3,3,4],"categories_nodes":[1,3],"categories_segments":[0,2],"categories_sizes":[2,2],"default_left":[1,1,0,1,0,0,0,0,0,0,0,0,0,0,0],"id":48,"left_children":[1,3,5,7,9,11,13,-1,-1,-1,-1,-1,-1,-1,-1],"loss_changes":[1.7376387E9,1.2105824E9,2.6959296E8,8.963953E8,1.0293389E8,8.35185E7,1.9274086E8,0E0,0E0,0E0,0E0,0E0,0E0,0E0,0E0],"parents":[2147483647,0,0,1,1,2,2,3,3,4,4,5,5,6,6],"right_children":[2,4,6,8,10,12,14,-1,-1,-1,-1,-1,-1,-1,-1],"split_conditions":[5.7373E4,1E-45,5.4003E4,1E-45,-2E0,6.198E4,-2E0,1.1187959E2,-3.497203E1,-1.1883488E2,-3.048495E2,1.27076866E2,1.3326363E1,2.8916655E1,2.9616592E2],"split_indices":[7,9,8,12,1,7,1,0,0,0,0,0,0,0,0],"split_type":[0,1,0,1,0,0,0,0,0,0,0,0,0,0,0],"sum_hessian":[6.4E2,5.51E2,8.9E1,4.95E2,5.6E1,4.9E1,4E1,9.6E1,3.99E2,4E1,1.6E1,2.3E1,2.6E1,9E0,3.1E1],"tree_param":{"num_deleted":"0","num_feature":"13","num_nodes":"15","size_leaf_vector":"1"}},{"base_weights":[3.6219772E1,-1.5571263E3,1.6284714E3,-3.9358635E3,-5.1535364E2,-7.371759E2,2.719124E3,3.3607464E1,-1.9933243E2,-5.958547E1,4.3347466E1,-1.0849372E2,8.192273E1,5.369209E1,2.31568E2],"categories":[0,0,3],"categories_nodes":[0,3],"categories_segments":[0,1],"categories_sizes":[1,2],"default_left":[1,1,1,1,0,0,0,0,0,0,0,0,0,0,0],"id":49,"left_children":[1,3,5,7,9,11,13,-1,-1,-1,-1,-1,-1,-1,-1],"loss_changes":[1.6744125E9,7.9748614E8,8.714794E8,2.6197952E8,3.009597E8,5.2336842E8,7.829384E8,0E0,0E0,0E0,0E0,0E0,0E0,0E0,0E0],"parents":[2147483647,0,0,1,1,2,2,3,3,4,4,5,5,6,6],"right_children":[2,4,6,8,10,12,14,-1,-1,-1,-1,-1,-1,-1,-1],"split_conditions":[1E-45,1.5244E4,2.3951E4,1E-45,1E0,5E0,1E0,3.3607464E1,-1.9933243E2,-5.958547E1,4.3347466E1,-1.0849372E2,8.192273E1,5.369209E1,2.31568E2],"split_indices":[0,7,7,9,3,1,3,0,0,0,0,0,0,0,0],"split_type":[1,0,0,1,0,0,0,0,0,0,0,0,0,0,0],"sum_hessian":[6.4E2,3.2E2,3.2E2,8.9E1,2.31E2,1.02E2,2.18E2,8E0,8.1E1,1.5E2,8.1E1,6.2E1,4E1,1.43E2,7.5E1],"tree_param":{"num_deleted":"0","num_feature":"13","num_nodes":"15","size_leaf_vector":"1"}},{"base_weights":[3.5770683E1,3.7688672E3,-6.1583105E2,-4.213791E2,4.402562E3,-3.0478916E3,3.436034E2,-5.1404976E1,5.090744E1,2.7022092E2,9.215417E1,-2.0040099E2,5.2167816E1,-1.8566763E2,3.9059673E1],"categories":[0,2,4],"categories_nodes":[0],"categories_segments":[0],"categories_sizes":[3],"default_left":[1,0,1,0,0,0,0,0,0,0,0,0,0,0,0],"id":50,"left_children":[1,3,5,7,9,11,13,-1,-1,-1,-1,-1,-1,-1,-1],"loss_changes":[1.6043328E9,2.787785E8,1.3218476E9,3.754959E7,2.014999E8,9.977156E8,1.0014488E9,0E0,0E0,0E0,0E0,0E0,0E0,0E0,0E0],"parents":[2147483647,0,0,1,1,2,2,3,3,4,4,5,5,6,6],"right_children":[2,4,6,8,10,12,14,-1,-1,-1,-1,-1,-1,-1,-1],"split_conditions":[1E-45,4.3348E4,1.5244E4,1E0,1E1,1.5E1,2.1978E4,-5.1404976E1,5.090744E1,2.7022092E2,9.215417E1,-2.0040099E2,5.2167816E1,-1.8566763E2,3.9059673E1],"split_indices":[10,8,7,4,1,1,8,0,0,0,0,0,0,0,0],"split_type":[1,0,0,0,0,0,0,0,0,0,0,0,0,0,0],"sum_hessian":[6.4E2,8.8E1,5.52E2,1.2E1,7.6E1,1.5E2,4.02E2,1E1,2E0,3.6E1,4E1,1.12E2,3.8E1,3.5E1,3.67E2],"tree_param":{"num_deleted":"0","num_feature":"13","num_nodes":"15","size_leaf_vector":"1"}},{"base_weights":[3.519303E1,-1.4863147E3,1.5556373E3,-3.6853032E3,-5.2131885E2,2.068786E3,-2.9318938E3,3.694332E1,-1.8772583E2,-5.3038013E1,5.187695E1,1.1757508E2,-1.3444202E2,-5.4410263E1,-1.8784366E2],"categories":[0,1,0,3],"categories_nodes":[0,2,3],"categories_segments":[0,1,2],"categories_sizes":[1,1,2],"default_left":[1,1,1,1,0,0,0,0,0,0,0,0,0,0,0],"id":51,"left_children":[1,3,5,7,9,11,13,-1,-1,-1,-1,-1,-1,-1,-1],"loss_changes":[1.5268109E9,6.810485E8,8.205676E8,2.5123597E8,2.787882E8,9.08753E8,3.0857376E7,0E0,0E0,0E0,0E0,0E0,0E0,0E0,0E0],"parents":[2147483647,0,0,1,1,2,2,3,3,4,4,5,5,6,6],"right_children":[2,4,6,8,10,12,14,-1,-1,-1,-1,-1,-1,-1,-1],"split_conditions":[1E-45,1.5244E4,1E-45,1E-45,1E0,1E0,-2E0,3.694332E1,-1.8772583E2,-5.3038013E1,5.187695E1,1.1757508E2,-1.3444202E2,-5.4410263E1,-1.8784366E2],"split_indices":[0,7,9,9,2,5,1,0,0,0,0,0,0,0,0],"split_type":[1,0,1,1,0,0,0,0,0,0,0,0,0,0,0],"sum_hessian":[6.4E2,3.2E2,3.2E2,8.9E1,2.31E2,2.92E2,2.8E1,8E0,8.1E1,1.68E2,6.3E1,2.68E2,2.4E1,2E1,8E0],"tree_param":{"num_deleted":"0","num_feature":"13","num_nodes":"15","size_leaf_vector":"1"}},{"base_weights":[2.7285866E1,3.6127031E3,-5.9841296E2,5.2930757E3,1.5412091E3,-2.868924E3,2.9786108E2,-1.0485528E1,2.6814996E2,1.3849532E2,1.5760367E-1,-1.895994E2,5.155892E1,1.6856258E2,-1.52217865E1],"categories":[0,2,4,2,3,4],"categories_nodes":[0,6],"categories_segments":[0,3],"categories_sizes":[3,3],"default_left":[1,0,1,0,0,0,1,0,0,0,0,0,0,0,0],"id":52,"left_children":[1,3,5,7,9,11,13,-1,-1,-1,-1,-1,-1,-1,-1],"loss_changes":[1.4798263E9,2.5954227E8,1.1522181E9,1.978574E8,1.369218E8,9.1184806E8,9.163283E8,0E0,0E0,0E0,0E0,0E0,0E0,0E0,0E0],"parents":[2147483647,0,0,1,1,2,2,3,3,4,4,5,5,6,6],"right_children":[2,4,6,8,10,12,14,-1,-1,-1,-1,-1,-1,-1,-1],"split_conditions":[1E-45,1E1,1.5244E4,4.869E4,5.0541E4,1.5E1,1E-45,-1.0485528E1,2.6814996E2,1.3849532E2,1.5760367E-1,-1.895994E2,5.155892E1,1.6856258E2,-1.52217865E1],"split_indices":[10,1,7,8,7,1,12,0,0,0,0,0,0,0,0],"split_type":[1,0,0,0,0,0,1,0,0,0,0,0,0,0,0],"sum_hessian":[6.4E2,8.8E1,5.52E2,4E1,4.8E1,1.5E2,4.02E2,5E0,3.5E1,1.9E1,2.9E1,1.12E2,3.8E1,5.5E1,3.47E2],"tree_param":{"num_deleted":"0","num_feature":"13","num_nodes":"15","size_leaf_vector":"1"}},{"base_weights":[3.2391205E1,4.8771426E3,-3.9985214E2,6.037208E3,1.3057994E3,7.497556E1,-4.296181E3,3.0242138E1,2.8372665E2,1.02497734E2,-6.381672E1,-8.388305E1,3.6092865E1,-1.07880745E2,-2.832914E2],"categories":[0,2,3,4,1,3],"categories_nodes":[0,2],"categories_segments":[0,4],"categories_sizes":[4,2],"default_left":[1,0,1,0,1,1,0,0,0,0,0,0,0,0,0],"id":53,"left_children":[1,3,5,7,9,11,13,-1,-1,-1,-1,-1,-1,-1,-1],"loss_changes":[1.3806783E9,1.4488038E8,1.1243768E9,1.2224128E7,1.0113695E8,7.9037037E8,9.96128E7,0E0,0E0,0E0,0E0,0E0,0E0,0E0,0E0],"parents":[2147483647,0,0,1,1,2,2,3,3,4,4,5,5,6,6],"right_children":[2,4,6,8,10,12,14,-1,-1,-1,-1,-1,-1,-1,-1],"split_conditions":[1E-45,1.2E1,1E-45,5.3116E4,6.6443E4,1.5244E4,-2E0,3.0242138E1,2.8372665E2,1.02497734E2,-6.381672E1,-8.388305E1,3.6092865E1,-1.07880745E2,-2.832914E2],"split_indices":[10,1,9,8,8,7,1,0,0,0,0,0,0,0,0],"split_type":[1,0,1,0,0,0,0,0,0,0,0,0,0,0,0],"sum_hessian":[6.4E2,4.4E1,5.96E2,2.8E1,1.6E1,5.4E2,5.6E1,3E0,2.5E1,1.3E1,3E0,1.43E2,3.97E2,4E1,1.6E1],"tree_param":{"num_deleted":"0","num_feature":"13","num_nodes":"15","size_leaf_vector":"1"}},{"base_weights":[2.960501E1,-1.3916907E3,1.4500066E3,-3.358455E3,-5.2601605E2,-3.096463E3,1.9241947E3,4.1674103E1,-1.726604E2,-2.390349E0,-1.3000589E2,4.90952E0,-2.075031E2,-1.7320383E1,1.2621809E2],"categories":[0,0,3],"categories_nodes":[0,3],"categories_segments":[0,1],"categories_sizes":[1,2],"default_left":[1,1,0,1,0,0,1,0,0,0,0,0,0,0,0],"id":54,"left_children":[1,3,5,7,9,11,13,-1,-1,-1,-1,-1,-1,-1,-1],"loss_changes":[1.3324065E9,5.4418086E8,7.710217E8,2.3847706E8,2.6776978E8,1.7497853E8,6.3101734E8,0E0,0E0,0E0,0E0,0E0,0E0,0E0,0E0],"parents":[2147483647,0,0,1,1,2,2,3,3,4,4,5,5,6,6],"right_children":[2,4,6,8,10,12,14,-1,-1,-1,-1,-1,-1,-1,-1],"split_conditions":[1E-45,1.5244E4,2.7186E4,1E-45,2E1,-4E0,1.5244E4,4.1674103E1,-1.726604E2,-2.390349E0,-1.3000589E2,4.90952E0,-2.075031E2,-1.7320383E1,1.2621809E2],"split_indices":[0,7,8,9,1,1,7,0,0,0,0,0,0,0,0],"split_type":[1,0,0,1,0,0,0,0,0,0,0,0,0,0,0],"sum_hessian":[6.4E2,3.2E2,3.2E2,8.9E1,2.31E2,2.5E1,2.95E2,8E0,8.1E1,2.01E2,3E1,1.1E1,1.4E1,8.3E1,2.12E2],"tree_param":{"num_deleted":"0","num_feature":"13","num_nodes":"15","size_leaf_vector":"1"}},{"base_weights":[2.2778988E1,3.3825137E3,-5.634858E2,-4.4632263E2,3.9686797E3,-8.509985E1,-4.145719E3,-5.1402275E1,4.8845085E1,2.4423573E2,8.247806E1,-6.146397E1,5.395324E1,-1.0418597E2,-2.7320938E2],"categories":[0,2,4,1,3,0],"categories_nodes":[0,2,5],"categories_segments":[0,3,5],"categories_sizes":[3,2,1],"default_left":[1,0,1,0,0,1,0,0,0,0,0,0,0,0,0],"id":55,"left_children":[1,3,5,7,9,11,13,-1,-1,-1,-1,-1,-1,-1,-1],"loss_changes":[1.2993641E9,2.3766118E8,9.595615E8,3.5851576E7,1.684672E8,8.4853446E8,9.206029E7,0E0,0E0,0E0,0E0,0E0,0E0,0E0,0E0],"parents":[2147483647,0,0,1,1,2,2,3,3,4,4,5,5,6,6],"right_children":[2,4,6,8,10,12,14,-1,-1,-1,-1,-1,-1,-1,-1],"split_conditions":[1E-45,4.3348E4,1E-45,1E0,1E1,1E-45,-2E0,-5.1402275E1,4.8845085E1,2.4423573E2,8.247806E1,-6.146397E1,5.395324E1,-1.0418597E2,-2.7320938E2],"split_indices":[10,8,9,4,1,0,1,0,0,0,0,0,0,0,0],"split_type":[1,0,1,0,0,1,0,0,0,0,0,0,0,0,0],"sum_hessian":[6.4E2,8.8E1,5.52E2,1.2E1,7.6E1,4.96E2,5.6E1,1E1,2E0,3.6E1,4E1,2.48E2,2.48E2,4E1,1.6E1],"tree_param":{"num_deleted":"0","num_feature":"13","num_nodes":"15","size_leaf_vector":"1"}},{"base_weights":[2.0819874E1,-5.4863586E2,3.2456428E3,-2.8101324E2,-2.5583784E2,1.363421E3,4.817516E3,6.704725E0,-1.5685876E2,1.1097129E2,-1.170127E0,1.8239784E1,2.559222E2],"categories":[1,3],"categories_nodes":[4],"categories_segments":[0],"categories_sizes":[2],"default_left":[1,0,0,0,1,0,0,0,0,0,0,0,0],"id":56,"left_children":[1,3,5,-1,7,9,11,-1,-1,-1,-1,-1,-1],"loss_changes":[1.2114656E9,9.1965715E8,2.2721363E8,0E0,7.165156E8,9.103103E7,1.6879373E8,0E0,0E0,0E0,0E0,0E0,0E0],"parents":[2147483647,0,0,1,1,2,2,4,4,5,5,6,6],"right_children":[2,4,6,-1,8,10,12,-1,-1,-1,-1,-1,-1],"split_conditions":[5.7373E4,1.6876E4,5.4003E4,-2.8101324E2,1E-45,6.198E4,-2E0,6.704725E0,-1.5685876E2,1.1097129E2,-1.170127E0,1.8239784E1,2.559222E2],"split_indices":[7,8,8,0,9,7,1,0,0,0,0,0,0],"split_type":[0,0,0,0,1,0,0,0,0,0,0,0,0],"sum_hessian":[6.4E2,5.51E2,8.9E1,1.7E1,5.34E2,4.9E1,4E1,4.83E2,5.1E1,2.3E1,2.6E1,9E0,3.1E1],"tree_param":{"num_deleted":"0","num_feature":"13","num_nodes":"13","size_leaf_vector":"1"}},{"base_weights":[1.9157822E1,3.2118337E3,-5.3791125E2,5.042141E3,1.5604363E3,-2.5351125E3,2.5075461E2,-1.2436097E1,2.5536308E2,1.3278674E2,8.756255E0,-1.7164223E2,5.59895E1,-1.6912119E2,3.251854E1],"categories":[0,2,4],"categories_nodes":[0],"categories_segments":[0],"categories_sizes":[3],"default_left":[1,0,1,0,0,0,0,0,0,0,0,0,0,0,0],"id":57,"left_children":[1,3,5,7,9,11,13,-1,-1,-1,-1,-1,-1,-1,-1],"loss_changes":[1.1733312E9,2.1752525E8,8.9157914E8,1.5699488E8,1.1959266E8,8.209573E8,8.065632E8,0E0,0E0,0E0,0E0,0E0,0E0,0E0,0E0],"parents":[2147483647,0,0,1,1,2,2,3,3,4,4,5,5,6,6],"right_children":[2,4,6,8,10,12,14,-1,-1,-1,-1,-1,-1,-1,-1],"split_conditions":[1E-45,9E0,1.5244E4,4.869E4,5.0541E4,1.5E1,2.1978E4,-1.2436097E1,2.5536308E2,1.3278674E2,8.756255E0,-1.7164223E2,5.59895E1,-1.6912119E2,3.251854E1],"split_indices":[10,1,7,8,7,1,8,0,0,0,0,0,0,0,0],"split_type":[1,0,0,0,0,0,0,0,0,0,0,0,0,0,0],"sum_hessian":[6.4E2,8.8E1,5.52E2,3.2E1,5.6E1,1.5E2,4.02E2,4E0,2.8E1,2.2E1,3.4E1,1.12E2,3.8E1,3.5E1,3.67E2],"tree_param":{"num_deleted":"0","num_feature":"13","num_nodes":"15","size_leaf_vector":"1"}},{"base_weights":[2.032941E1,-1.2749384E3,1.3149841E3,-3.0771853E3,-4.8169003E2,-2.882863E3,1.7535934E3,4.536867E1,-1.5962134E2,-5.5256184E1,3.974743E1,7.258108E0,-1.955406E2,-1.4750215E1,1.1459408E2],"categories":[0,0,3],"categories_nodes":[0,3],"categories_segments":[0,1],"categories_sizes":[1,2],"default_left":[1,1,0,1,0,0,1,0,0,0,0,0,0,0,0],"id":58,"left_children":[1,3,5,7,9,11,13,-1,-1,-1,-1,-1,-1,-1,-1],"loss_changes":[1.1067661E9,4.5695165E8,6.581534E8,2.2583917E8,2.563221E8,1.6283376E8,5.1172416E8,0E0,0E0,0E0,0E0,0E0,0E0,0E0,0E0],"parents":[2147483647,0,0,1,1,2,2,3,3,4,4,5,5,6,6],"right_children":[2,4,6,8,10,12,14,-1,-1,-1,-1,-1,-1,-1,-1],"split_conditions":[1E-45,1.5244E4,2.7186E4,1E-45,1E0,-4E0,1.5244E4,4.536867E1,-1.5962134E2,-5.5256184E1,3.974743E1,7.258108E0,-1.955406E2,-1.4750215E1,1.1459408E2],"split_indices":[0,7,8,9,3,1,7,0,0,0,0,0,0,0,0],"split_type":[1,0,0,1,0,0,0,0,0,0,0,0,0,0,0],"sum_hessian":[6.4E2,3.2E2,3.2E2,8.9E1,2.31E2,2.5E1,2.95E2,8E0,8.1E1,1.5E2,8.1E1,1.1E1,1.4E1,8.3E1,2.12E2],"tree_param":{"num_deleted":"0","num_feature":"13","num_nodes":"15","size_leaf_vector":"1"}},{"base_weights":[1.6058151E1,3.0954614E3,-5.212036E2,-1.1632251E3,3.4996504E3,-2.654456E2,-2.4522583E2,-2.4171546E0,-6.200416E1,2.1456406E2,7.758209E1,-1.00103264E2,2.2832474E1],"categories":[0,2,4],"categories_nodes":[0],"categories_segments":[0],"categories_sizes":[3],"default_left":[1,0,0,0,0,0,1,0,0,0,0,0,0],"id":59,"left_children":[1,3,5,7,9,-1,11,-1,-1,-1,-1,-1,-1],"loss_changes":[1.0915259E9,2.0939994E8,8.1958957E8,3.068868E6,1.249961E8,0E0,8.231438E8,0E0,0E0,0E0,0E0,0E0,0E0],"parents":[2147483647,0,0,1,1,2,2,3,3,4,4,6,6],"right_children":[2,4,6,8,10,-1,12,-1,-1,-1,-1,-1,-1],"split_conditions":[1E-45,3.5525E4,1.6876E4,1.1E1,1E1,-2.654456E2,1.073E4,-2.4171546E0,-6.200416E1,2.1456406E2,7.758209E1,-1.00103264E2,2.2832474E1],"split_indices":[10,8,8,1,1,0,7,0,0,0,0,0,0],"split_type":[1,0,0,0,0,0,0,0,0,0,0,0,0],"sum_hessian":[6.4E2,8.8E1,5.52E2,6E0,8.2E1,1.7E1,5.35E2,3E0,3E0,3.8E1,4.4E1,1.42E2,3.93E2],"tree_param":{"num_deleted":"0","num_feature":"13","num_nodes":"13","size_leaf_vector":"1"}},{"base_weights":[1.3566437E1,4.3266006E2,-3.7603167E3,-8.2277716E2,1.6737742E3,-2.0483767E3,-2.5227878E2,-8.139176E0,-1.07473366E2,9.685457E1,-1.2290987E2,9.957227E-1,-1.1016228E2],"categories":[1,3,0],"categories_nodes":[0,1],"categories_segments":[0,2],"categories_sizes":[2,1],"default_left":[1,1,0,0,0,0,0,0,0,0,0,0,0],"id":60,"left_children":[1,3,5,7,9,11,-1,-1,-1,-1,-1,-1,-1],"loss_changes":[1.0443128E9,9.3930797E8,9.371853E7,2.9916275E8,6.954209E8,4.192043E7,0E0,0E0,0E0,0E0,0E0,0E0,0E0],"parents":[2147483647,0,0,1,1,2,2,3,3,4,4,5,5],"right_children":[2,4,6,8,10,12,-1,-1,-1,-1,-1,-1,-1],"split_conditions":[1E-45,1E-45,-2E0,6.1738E4,1E0,2.3133E4,-2.5227878E2,-8.139176E0,-1.07473366E2,9.685457E1,-1.2290987E2,9.957227E-1,-1.1016228E2],"split_indices":[9,0,1,7,5,8,0,0,0,0,0,0,0],"split_type":[1,1,0,0,0,0,0,0,0,0,0,0,0],"sum_hessian":[6.4E2,5.84E2,5.6E1,2.92E2,2.92E2,4E1,1.6E1,2.15E2,7.7E1,2.68E2,2.4E1,8E0,3.2E1],"tree_param":{"num_deleted":"0","num_feature":"13","num_nodes":"13","size_leaf_vector":"1"}},{"base_weights":[5.21567E0,2.9517354E3,-5.0868127E2,-4.7675284E2,3.4855771E3,-2.5568279E2,-2.4306096E2,-5.217725E1,4.7626217E1,2.157074E2,7.133196E1,-9.449669E1,2.0849579E1],"categories":[0,2,4],"categories_nodes":[0],"categories_segments":[0],"categories_sizes":[3],"default_left":[1,0,0,0,0,0,1,0,0,0,0,0,0],"id":61,"left_children":[1,3,5,7,9,-1,11,-1,-1,-1,-1,-1,-1],"loss_changes":[9.992522E8,1.9598714E8,7.584256E8,3.532961E7,1.37771E8,0E0,7.245867E8,0E0,0E0,0E0,0E0,0E0,0E0],"parents":[2147483647,0,0,1,1,2,2,3,3,4,4,6,6],"right_children":[2,4,6,8,10,-1,12,-1,-1,-1,-1,-1,-1],"split_conditions":[1E-45,4.3348E4,1.6876E4,1E0,1E1,-2.5568279E2,1.073E4,-5.217725E1,4.7626217E1,2.157074E2,7.133196E1,-9.449669E1,2.0849579E1],"split_indices":[10,8,8,4,1,0,7,0,0,0,0,0,0],"split_type":[1,0,0,0,0,0,0,0,0,0,0,0,0],"sum_hessian":[6.4E2,8.8E1,5.52E2,1.2E1,7.6E1,1.7E1,5.35E2,1E1,2E0,3.6E1,4E1,1.42E2,3.93E2],"tree_param":{"num_deleted":"0","num_feature":"13","num_nodes":"13","size_leaf_vector":"1"}},{"base_weights":[4.26125E0,4.0629178E2,-3.614644E3,-7.8951666E2,1.5886501E3,-1.9661104E3,-2.4275768E2,-6.7985596E1,1.9363817E1,9.2031815E1,-1.1750127E2,1.2501758E0,-1.05864204E2],"categories":[1,3,0],"categories_nodes":[0,1],"categories_segments":[0,2],"categories_sizes":[2,1],"default_left":[1,1,0,1,0,0,0,0,0,0,0,0,0],"id":62,"left_children":[1,3,5,7,9,11,-1,-1,-1,-1,-1,-1,-1],"loss_changes":[9.603746E8,8.523848E8,8.759507E7,2.7221005E8,6.323982E8,3.9180624E7,0E0,0E0,0E0,0E0,0E0,0E0,0E0],"parents":[2147483647,0,0,1,1,2,2,3,3,4,4,5,5],"right_children":[2,4,6,8,10,12,-1,-1,-1,-1,-1,-1,-1],"split_conditions":[1E-45,1E-45,-2E0,2.9073E4,1E0,2.3133E4,-2.4275768E2,-6.7985596E1,1.9363817E1,9.2031815E1,-1.1750127E2,1.2501758E0,-1.05864204E2],"split_indices":[9,0,1,8,5,8,0,0,0,0,0,0,0],"split_type":[1,1,0,0,0,0,0,0,0,0,0,0,0],"sum_hessian":[6.4E2,5.84E2,5.6E1,2.92E2,2.92E2,4E1,1.6E1,1.82E2,1.1E2,2.68E2,2.4E1,8E0,3.2E1],"tree_param":{"num_deleted":"0","num_feature":"13","num_nodes":"13","size_leaf_vector":"1"}},{"base_weights":[-2.4115775E0,2.8173274E3,-4.9406873E2,4.503245E3,1.3175879E3,-2.454815E2,-2.3922333E2,-7.355543E0,2.3301384E2,1.23533676E2,-9.0446246E-1,-8.979375E1,1.930931E1],"categories":[0,2,4],"categories_nodes":[0],"categories_segments":[0],"categories_sizes":[3],"default_left":[1,0,0,0,0,0,1,0,0,0,0,0,0],"id":63,"left_children":[1,3,5,7,9,-1,11,-1,-1,-1,-1,-1,-1],"loss_changes":[9.1504134E8,1.8844685E8,6.9748506E8,1.407385E8,1.2659391E8,0E0,6.48229E8,0E0,0E0,0E0,0E0,0E0,0E0],"parents":[2147483647,0,0,1,1,2,2,3,3,4,4,6,6],"right_children":[2,4,6,8,10,-1,12,-1,-1,-1,-1,-1,-1],"split_conditions":[1E-45,9E0,1.6876E4,5.4613E4,5.0541E4,-2.454815E2,1.073E4,-7.355543E0,2.3301384E2,1.23533676E2,-9.0446246E-1,-8.979375E1,1.930931E1],"split_indices":[10,1,8,8,7,0,7,0,0,0,0,0,0],"split_type":[1,0,0,0,0,0,0,0,0,0,0,0,0],"sum_hessian":[6.4E2,8.8E1,5.52E2,3.2E1,5.6E1,1.7E1,5.35E2,5E0,2.7E1,2.2E1,3.4E1,1.42E2,3.93E2],"tree_param":{"num_deleted":"0","num_feature":"13","num_nodes":"13","size_leaf_vector":"1"}},{"base_weights":[-1.805619E0,3.8407712E2,-3.4744917E3,2.584994E3,-2.2172925E2,-1.8868887E3,-2.3360371E2,-2.936681E1,2.034127E2,1.0850013E1,-1.2250684E2,1.5009766E0,-1.0172767E2],"categories":[1,3,3,4],"categories_nodes":[0,1],"categories_segments":[0,2],"categories_sizes":[2,2],"default_left":[1,1,0,0,0,0,0,0,0,0,0,0,0],"id":64,"left_children":[1,3,5,7,9,11,-1,-1,-1,-1,-1,-1,-1],"loss_changes":[8.843801E8,7.9773165E8,8.192E7,8.377745E8,5.5633146E8,3.663853E7,0E0,0E0,0E0,0E0,0E0,0E0,0E0],"parents":[2147483647,0,0,1,1,2,2,3,3,4,4,5,5],"right_children":[2,4,6,8,10,12,-1,-1,-1,-1,-1,-1,-1],"split_conditions":[1E-45,1E-45,-2E0,4E0,2E1,2.3133E4,-2.3360371E2,-2.936681E1,2.034127E2,1.0850013E1,-1.2250684E2,1.5009766E0,-1.0172767E2],"split_indices":[9,12,1,1,1,8,0,0,0,0,0,0,0],"split_type":[1,1,0,0,0,0,0,0,0,0,0,0,0],"sum_hessian":[6.4E2,5.84E2,5.6E1,1.19E2,4.65E2,4E1,1.6E1,4.7E1,7.2E1,4E2,6.5E1,8E0,3.2E1],"tree_param":{"num_deleted":"0","num_feature":"13","num_nodes":"13","size_leaf_vector":"1"}},{"base_weights":[-5.901193E0,-4.836017E2,2.7016543E3,-2.3718837E2,-2.371076E2,1.0301396E3,4.133691E3,4.6118145E0,-1.3242728E2,9.591701E1,-1.1949868E1,9.305462E0,2.225355E2],"categories":[1,3],"categories_nodes":[4],"categories_segments":[0],"categories_sizes":[2],"default_left":[1,0,0,0,1,0,0,0,0,0,0,0,0],"id":65,"left_children":[1,3,5,-1,7,9,11,-1,-1,-1,-1,-1,-1],"loss_changes":[8.537735E8,6.4949325E8,1.9438534E8,0E0,5.028689E8,8.985568E7,1.491111E8,0E0,0E0,0E0,0E0,0E0,0E0],"parents":[2147483647,0,0,1,1,2,2,4,4,5,5,6,6],"right_children":[2,4,6,-1,8,10,12,-1,-1,-1,-1,-1,-1],"split_conditions":[5.7373E4,1.6876E4,5.4003E4,-2.3718837E2,1E-45,6.198E4,-2E0,4.6118145E0,-1.3242728E2,9.591701E1,-1.1949868E1,9.305462E0,2.225355E2],"split_indices":[7,8,8,0,9,7,1,0,0,0,0,0,0],"split_type":[0,0,0,0,1,0,0,0,0,0,0,0,0],"sum_hessian":[6.4E2,5.51E2,8.9E1,1.7E1,5.34E2,4.9E1,4E1,4.83E2,5.1E1,2.3E1,2.6E1,9E0,3.1E1],"tree_param":{"num_deleted":"0","num_feature":"13","num_nodes":"13","size_leaf_vector":"1"}},{"base_weights":[-6.3934464E0,-1.1143878E3,1.1017916E3,-1.783636E3,3.1011197E2,-2.6112117E3,1.4917529E3,4.705838E1,-9.630143E1,-3.307352E1,9.9299416E1,3.0987308E0,-1.7407404E2,-1.0251765E1,9.652148E1],"categories":[0,0,4],"categories_nodes":[0,3],"categories_segments":[0,1],"categories_sizes":[1,2],"default_left":[1,1,0,1,0,0,1,0,0,0,0,0,0,0,0],"id":66,"left_children":[1,3,5,7,9,11,13,-1,-1,-1,-1,-1,-1,-1,-1],"loss_changes":[8.10389E8,3.2013626E8,5.167678E8,2.5027373E8,2.4217174E8,1.2058672E8,3.474551E8,0E0,0E0,0E0,0E0,0E0,0E0,0E0,0E0],"parents":[2147483647,0,0,1,1,2,2,3,3,4,4,5,5,6,6],"right_children":[2,4,6,8,10,12,14,-1,-1,-1,-1,-1,-1,-1,-1],"split_conditions":[1E-45,3.0611E4,2.7186E4,1E-45,1E0,-4E0,1.5244E4,4.705838E1,-9.630143E1,-3.307352E1,9.9299416E1,3.0987308E0,-1.7407404E2,-1.0251765E1,9.652148E1],"split_indices":[0,8,8,10,3,1,7,0,0,0,0,0,0,0,0],"split_type":[1,0,0,1,0,0,0,0,0,0,0,0,0,0,0],"sum_hessian":[6.4E2,3.2E2,3.2E2,2.16E2,1.04E2,2.5E1,2.95E2,2.2E1,1.94E2,7.1E1,3.3E1,1.1E1,1.4E1,8.3E1,2.12E2],"tree_param":{"num_deleted":"0","num_feature":"13","num_nodes":"15","size_leaf_vector":"1"}},{"base_weights":[-7.14735E0,3.6485076E3,-3.3278247E2,5.460811E3,1.4483505E3,-2.2709143E2,-1.11053185E2,7.1925216E0,2.5239944E2,9.7915565E1,-6.0886066E1,-7.605199E1,2.168111E1],"categories":[0,2,3,4],"categories_nodes":[0],"categories_segments":[0],"categories_sizes":[4],"default_left":[1,0,0,0,1,0,1,0,0,0,0,0,0],"id":67,"left_children":[1,3,5,7,9,-1,11,-1,-1,-1,-1,-1,-1],"loss_changes":[7.859045E8,1.3621843E8,6.277599E8,1.1436544E7,1.06890696E8,0E0,5.595149E8,0E0,0E0,0E0,0E0,0E0,0E0],"parents":[2147483647,0,0,1,1,2,2,3,3,4,4,6,6],"right_children":[2,4,6,8,10,-1,12,-1,-1,-1,-1,-1,-1],"split_conditions":[1E-45,9E0,1.6876E4,5.4613E4,6.6443E4,-2.2709143E2,1.073E4,7.1925216E0,2.5239944E2,9.7915565E1,-6.0886066E1,-7.605199E1,2.168111E1],"split_indices":[10,1,8,8,8,0,7,0,0,0,0,0,0],"split_type":[1,0,0,0,0,0,0,0,0,0,0,0,0],"sum_hessian":[6.4E2,4.4E1,5.96E2,1.6E1,2.8E1,1.7E1,5.79E2,1E0,1.5E1,2.4E1,4E0,1.53E2,4.26E2],"tree_param":{"num_deleted":"0","num_feature":"13","num_nodes":"13","size_leaf_vector":"1"}},{"base_weights":[-6.5914454E0,3.4752972E2,-3.1926985E3,2.892593E3,-1.1657208E2,-1.6877311E3,-2.1864902E2,-2.7405468E1,1.8981128E2,-1.380522E2,6.7857594E0,-1.6417551E0,-9.6483925E1],"categories":[1,3,2,3,4],"categories_nodes":[0,1],"categories_segments":[0,2],"categories_sizes":[2,3],"default_left":[1,1,0,1,0,0,0,0,0,0,0,0,0],"id":68,"left_children":[1,3,5,7,9,11,-1,-1,-1,-1,-1,-1,-1],"loss_changes":[7.444726E8,7.0498874E8,8.348582E7,4.526775E8,4.086315E8,3.689344E7,0E0,0E0,0E0,0E0,0E0,0E0,0E0],"parents":[2147483647,0,0,1,1,2,2,3,3,4,4,5,5],"right_children":[2,4,6,8,10,12,-1,-1,-1,-1,-1,-1,-1],"split_conditions":[1E-45,1E-45,-2E0,1.6609E4,2.4328E4,2.7799E4,-2.1864902E2,-2.7405468E1,1.8981128E2,-1.380522E2,6.7857594E0,-1.6417551E0,-9.6483925E1],"split_indices":[9,12,1,7,8,8,0,0,0,0,0,0,0],"split_type":[1,1,0,0,0,0,0,0,0,0,0,0,0],"sum_hessian":[6.4E2,5.84E2,5.6E1,8.2E1,5.02E2,4E1,1.6E1,2.4E1,5.8E1,3.3E1,4.69E2,1.1E1,2.9E1],"tree_param":{"num_deleted":"0","num_feature":"13","num_nodes":"13","size_leaf_vector":"1"}},{"base_weights":[-1.068914E1,3.505755E3,-3.238609E2,5.0175967E3,1.1406431E3,1.4805298E1,-3.0970247E3,1.0641665E1,2.3735754E2,8.733225E1,-7.400546E1,8.378443E1,-2.106423E1,-7.3413414E1,-2.1259413E2],"categories":[0,2,3,4,1,3,3,4],"categories_nodes":[0,2,5],"categories_segments":[0,4,6],"categories_sizes":[4,2,2],"default_left":[1,0,1,0,1,1,0,0,0,0,0,0,0,0,0],"id":69,"left_children":[1,3,5,7,9,11,13,-1,-1,-1,-1,-1,-1,-1,-1],"loss_changes":[7.271638E8,1.3584742E8,5.696028E8,2.43856E7,1.0768133E8,4.9928883E8,8.032947E7,0E0,0E0,0E0,0E0,0E0,0E0,0E0,0E0],"parents":[2147483647,0,0,1,1,2,2,3,3,4,4,5,5,6,6],"right_children":[2,4,6,8,10,12,14,-1,-1,-1,-1,-1,-1,-1,-1],"split_conditions":[1E-45,1E1,1E-45,5.4613E4,6.6443E4,1E-45,-2E0,1.0641665E1,2.3735754E2,8.733225E1,-7.400546E1,8.378443E1,-2.106423E1,-7.3413414E1,-2.1259413E2],"split_indices":[10,1,9,8,8,12,1,0,0,0,0,0,0,0,0],"split_type":[1,0,1,0,0,1,0,0,0,0,0,0,0,0,0],"sum_hessian":[6.4E2,4.4E1,5.96E2,2E1,2.4E1,5.4E2,5.6E1,2E0,1.8E1,2.1E1,3E0,1.06E2,4.34E2,4E1,1.6E1],"tree_param":{"num_deleted":"0","num_feature":"13","num_nodes":"15","size_leaf_vector":"1"}},{"base_weights":[-9.6239395E0,2.4341084E3,-4.3558572E2,3.7519272E3,8.783665E2,-2.1447487E2,-2.1305186E2,-1.5243329E1,1.9267847E2,1.09680824E2,-2.277339E1,-7.845536E1,1.6625492E1],"categories":[0,2,4],"categories_nodes":[0],"categories_segments":[0],"categories_sizes":[3],"default_left":[1,0,0,0,0,0,1,0,0,0,0,0,0],"id":70,"left_children":[1,3,5,7,9,-1,11,-1,-1,-1,-1,-1,-1],"loss_changes":[6.872094E8,1.6795789E8,5.3143334E8,1.2287315E8,1.3751957E8,0E0,4.9229344E8,0E0,0E0,0E0,0E0,0E0,0E0],"parents":[2147483647,0,0,1,1,2,2,3,3,4,4,6,6],"right_children":[2,4,6,8,10,-1,12,-1,-1,-1,-1,-1,-1],"split_conditions":[1E-45,1E1,1.6876E4,4.869E4,5.0541E4,-2.1447487E2,1.073E4,-1.5243329E1,1.9267847E2,1.09680824E2,-2.277339E1,-7.845536E1,1.6625492E1],"split_indices":[10,1,8,8,7,0,7,0,0,0,0,0,0],"split_type":[1,0,0,0,0,0,0,0,0,0,0,0,0],"sum_hessian":[6.4E2,8.8E1,5.52E2,4E1,4.8E1,1.7E1,5.35E2,5E0,3.5E1,1.9E1,2.9E1,1.42E2,3.93E2],"tree_param":{"num_deleted":"0","num_feature":"13","num_nodes":"13","size_leaf_vector":"1"}},{"base_weights":[-9.3744955E0,-1.0198305E3,1.00136255E3,-1.6194952E3,2.584286E2,-2.4234958E3,1.3615508E3,4.2262894E1,-8.73663E1,-3.31232E1,9.322704E1,2.8577678E0,-1.6154434E2,7.372015E1,-7.255461E1],"categories":[0,0,4,1],"categories_nodes":[0,3,6],"categories_segments":[0,1,3],"categories_sizes":[1,2,1],"default_left":[1,1,0,1,0,0,1,0,0,0,0,0,0,0,0],"id":71,"left_children":[1,3,5,7,9,11,13,-1,-1,-1,-1,-1,-1,-1,-1],"loss_changes":[6.740607E8,2.5714048E8,4.40082E8,2.0442163E8,2.2082794E8,1.0381078E8,2.7736646E8,0E0,0E0,0E0,0E0,0E0,0E0,0E0,0E0],"parents":[2147483647,0,0,1,1,2,2,3,3,4,4,5,5,6,6],"right_children":[2,4,6,8,10,12,14,-1,-1,-1,-1,-1,-1,-1,-1],"split_conditions":[1E-45,3.0611E4,2.7186E4,1E-45,1E0,-4E0,1E-45,4.2262894E1,-8.73663E1,-3.31232E1,9.322704E1,2.8577678E0,-1.6154434E2,7.372015E1,-7.255461E1],"split_indices":[0,8,8,10,3,1,9,0,0,0,0,0,0,0,0],"split_type":[1,0,0,1,0,0,1,0,0,0,0,0,0,0,0],"sum_hessian":[6.4E2,3.2E2,3.2E2,2.16E2,1.04E2,2.5E1,2.95E2,2.2E1,1.94E2,7.1E1,3.3E1,1.1E1,1.4E1,2.74E2,2.1E1],"tree_param":{"num_deleted":"0","num_feature":"13","num_nodes":"15","size_leaf_vector":"1"}},{"base_weights":[-1.1144218E1,-4.228305E2,2.3228604E3,-2.053045E2,-2.0960335E2,8.002173E2,3.6549873E3,8.8163895E1,-2.358338E1,8.593106E1,-1.9752863E1,3.6025813E0,1.9890799E2],"categories":[0,2,4],"categories_nodes":[4],"categories_segments":[0],"categories_sizes":[3],"default_left":[1,0,0,0,1,0,0,0,0,0,0,0,0],"id":72,"left_children":[1,3,5,-1,7,9,11,-1,-1,-1,-1,-1,-1],"loss_changes":[6.343904E8,4.8560026E8,1.7155475E8,0E0,3.8128867E8,8.949018E7,1.3323187E8,0E0,0E0,0E0,0E0,0E0,0E0],"parents":[2147483647,0,0,1,1,2,2,4,4,5,5,6,6],"right_children":[2,4,6,-1,8,10,12,-1,-1,-1,-1,-1,-1],"split_conditions":[5.7373E4,1.6876E4,5.4003E4,-2.053045E2,1E-45,6.198E4,-2E0,8.8163895E1,-2.358338E1,8.593106E1,-1.9752863E1,3.6025813E0,1.9890799E2],"split_indices":[7,8,8,0,10,7,1,0,0,0,0,0,0],"split_type":[0,0,0,0,1,0,0,0,0,0,0,0,0],"sum_hessian":[6.4E2,5.51E2,8.9E1,1.7E1,5.34E2,4.9E1,4E1,6.1E1,4.73E2,2.3E1,2.6E1,9E0,3.1E1],"tree_param":{"num_deleted":"0","num_feature":"13","num_nodes":"13","size_leaf_vector":"1"}},{"base_weights":[-8.674426E0,3.096837E2,-2.8725984E3,3.7409304E3,1.4591341E1,-1.4807853E3,-1.9999251E2,-5.8000492E1,2.5361453E2,-1.0690635E2,1.26655655E1,2.7782648E0,-8.692707E1],"categories":[1,3,1,2,3,4],"categories_nodes":[0,1],"categories_segments":[0,2],"categories_sizes":[2,4],"default_left":[1,1,0,0,0,0,0,0,0,0,0,0,0],"id":73,"left_children":[1,3,5,7,9,11,-1,-1,-1,-1,-1,-1,-1],"loss_changes":[6.0153824E8,6.0089594E8,7.855782E7,5.2061485E8,3.6198685E8,3.59728E7,0E0,0E0,0E0,0E0,0E0,0E0,0E0],"parents":[2147483647,0,0,1,1,2,2,3,3,4,4,5,5],"right_children":[2,4,6,8,10,12,-1,-1,-1,-1,-1,-1,-1],"split_conditions":[1E-45,1E-45,-2E0,1E0,2.7572E4,2.7799E4,-1.9999251E2,-5.8000492E1,2.5361453E2,-1.0690635E2,1.26655655E1,2.7782648E0,-8.692707E1],"split_indices":[9,12,1,1,8,8,0,0,0,0,0,0,0],"split_type":[1,1,0,0,0,0,0,0,0,0,0,0,0],"sum_hessian":[6.4E2,5.84E2,5.6E1,3.7E1,5.47E2,4E1,1.6E1,1.1E1,2.6E1,4.7E1,5E2,1.1E1,2.9E1],"tree_param":{"num_deleted":"0","num_feature":"13","num_nodes":"13","size_leaf_vector":"1"}},{"base_weights":[-1.109497E1,-9.5107715E2,9.2922034E2,-2.2436438E3,-3.806378E2,1.261649E3,-2.3359082E3,5.901774E1,-1.2151427E2,3.106784E0,-1.19589836E2,1.9621853E1,1.2704836E2,-1.703187E2,2.5683197E1],"categories":[0,0,3],"categories_nodes":[0,3],"categories_segments":[0,1],"categories_sizes":[1,2],"default_left":[1,1,0,1,0,0,1,0,0,0,0,0,0,0,0],"id":74,"left_children":[1,3,5,7,9,11,13,-1,-1,-1,-1,-1,-1,-1,-1],"loss_changes":[5.8335936E8,2.3477638E8,3.8765923E8,1.9614675E8,2.4859168E8,3.8221453E8,1.6479883E8,0E0,0E0,0E0,0E0,0E0,0E0,0E0,0E0],"parents":[2147483647,0,0,1,1,2,2,3,3,4,4,5,5,6,6],"right_children":[2,4,6,8,10,12,14,-1,-1,-1,-1,-1,-1,-1,-1],"split_conditions":[1E-45,1.5244E4,1E0,1E-45,2E1,1E0,2.3951E4,5.901774E1,-1.2151427E2,3.106784E0,-1.19589836E2,1.9621853E1,1.2704836E2,-1.703187E2,2.5683197E1],"split_indices":[0,7,5,9,1,3,7,0,0,0,0,0,0,0,0],"split_type":[1,0,0,1,0,0,0,0,0,0,0,0,0,0,0],"sum_hessian":[6.4E2,3.2E2,3.2E2,8.9E1,2.31E2,2.96E2,2.4E1,8E0,8.1E1,2.01E2,3E1,2.02E2,9.4E1,1.4E1,1E1],"tree_param":{"num_deleted":"0","num_feature":"13","num_nodes":"15","size_leaf_vector":"1"}},{"base_weights":[-1.331692E1,2.9526337E2,-2.7885369E3,3.5446006E3,1.5779563E1,-1.4340532E3,-4.3207607E3,-5.835362E1,2.4228613E2,3.1683195E1,-3.8874283E1,9.251671E0,-8.079036E1,-5.3151314E1,-2.2769563E2],"categories":[1,3,1,2,3,4],"categories_nodes":[0,1],"categories_segments":[0,2],"categories_sizes":[2,4],"default_left":[1,1,0,0,0,0,0,0,0,0,0,0,0,0,0],"id":75,"left_children":[1,3,5,7,9,11,13,-1,-1,-1,-1,-1,-1,-1,-1],"loss_changes":[5.6488186E8,5.388705E8,7.500678E7,4.8839686E8,3.433218E8,3.3311904E7,5.65472E5,0E0,0E0,0E0,0E0,0E0,0E0,0E0,0E0],"parents":[2147483647,0,0,1,1,2,2,3,3,4,4,5,5,6,6],"right_children":[2,4,6,8,10,12,14,-1,-1,-1,-1,-1,-1,-1,-1],"split_conditions":[1E-45,1E-45,-2E0,1E0,9E0,2.3133E4,1E0,-5.835362E1,2.4228613E2,3.1683195E1,-3.8874283E1,9.251671E0,-8.079036E1,-5.3151314E1,-2.2769563E2],"split_indices":[9,12,1,1,1,8,3,0,0,0,0,0,0,0,0],"split_type":[1,1,0,0,0,0,0,0,0,0,0,0,0,0,0],"sum_hessian":[6.4E2,5.84E2,5.6E1,3.7E1,5.47E2,4E1,1.6E1,1.1E1,2.6E1,3.08E2,2.39E2,8E0,3.2E1,8E0,8E0],"tree_param":{"num_deleted":"0","num_feature":"13","num_nodes":"15","size_leaf_vector":"1"}},{"base_weights":[-1.5419799E1,-3.944646E2,2.134048E3,-1.9457266E2,-1.9218758E2,6.9955597E2,3.3999194E3,8.2526245E1,-2.1871967E1,8.016204E1,-2.1888365E1,1.9078465E0,1.8569574E2],"categories":[0,2,4],"categories_nodes":[4],"categories_segments":[0],"categories_sizes":[3],"default_left":[1,0,0,0,1,0,0,0,0,0,0,0,0],"id":76,"left_children":[1,3,5,-1,7,9,11,-1,-1,-1,-1,-1,-1],"loss_changes":[5.380003E8,4.3758064E8,1.5598397E8,0E0,3.328007E8,8.4363224E7,1.2023386E8,0E0,0E0,0E0,0E0,0E0,0E0],"parents":[2147483647,0,0,1,1,2,2,4,4,5,5,6,6],"right_children":[2,4,6,-1,8,10,12,-1,-1,-1,-1,-1,-1],"split_conditions":[5.7373E4,1.6876E4,5.4003E4,-1.9457266E2,1E-45,6.198E4,-2E0,8.2526245E1,-2.1871967E1,8.016204E1,-2.1888365E1,1.9078465E0,1.8569574E2],"split_indices":[7,8,8,0,10,7,1,0,0,0,0,0,0],"split_type":[0,0,0,0,1,0,0,0,0,0,0,0,0],"sum_hessian":[6.4E2,5.51E2,8.9E1,1.7E1,5.34E2,4.9E1,4E1,6.1E1,4.73E2,2.3E1,2.6E1,9E0,3.1E1],"tree_param":{"num_deleted":"0","num_feature":"13","num_nodes":"13","size_leaf_vector":"1"}},{"base_weights":[-1.3003979E1,2.8408E2,-2.6848044E3,5.795569E2,-2.5464404E3,-1.3628768E3,-4.1943174E3,1.19359604E2,-1.9127078E-1,-2.4207391E2,-1.9008884E1,3.478845E0,-8.050189E1,-5.1219116E1,-2.2140904E2],"categories":[1,3,3,4],"categories_nodes":[0,3],"categories_segments":[0,2],"categories_sizes":[2,2],"default_left":[1,0,0,1,1,0,0,0,0,0,0,0,0,0,0],"id":77,"left_children":[1,3,5,7,9,11,13,-1,-1,-1,-1,-1,-1,-1,-1],"loss_changes":[5.235663E8,5.1154995E8,7.45319E7,6.608637E8,3.2627427E8,3.2064512E7,1.670016E6,0E0,0E0,0E0,0E0,0E0,0E0,0E0,0E0],"parents":[2147483647,0,0,1,1,2,2,3,3,4,4,5,5,6,6],"right_children":[2,4,6,8,10,12,14,-1,-1,-1,-1,-1,-1,-1,-1],"split_conditions":[1E-45,1E0,-2E0,1E-45,1.073E4,2.7799E4,1E0,1.19359604E2,-1.9127078E-1,-2.4207391E2,-1.9008884E1,3.478845E0,-8.050189E1,-5.1219116E1,-2.2140904E2],"split_indices":[9,5,1,12,7,8,3,0,0,0,0,0,0,0,0],"split_type":[1,0,0,1,0,0,0,0,0,0,0,0,0,0,0],"sum_hessian":[6.4E2,5.84E2,5.6E1,5.36E2,4.8E1,4E1,1.6E1,1.1E2,4.26E2,1.4E1,3.4E1,1.1E1,2.9E1,8E0,8E0],"tree_param":{"num_deleted":"0","num_feature":"13","num_nodes":"15","size_leaf_vector":"1"}},{"base_weights":[-1.9981611E1,-8.9384406E2,8.5448334E2,-1.2903638E3,6.522598E2,-2.2123625E3,1.1784039E3,-2.5706268E1,-9.9606094E1,8.062259E1,-1.6149463E2,3.7959125E0,-1.4850961E2,-9.480806E0,7.682592E1],"categories":[0],"categories_nodes":[0],"categories_segments":[0],"categories_sizes":[1],"default_left":[1,1,0,0,0,0,1,0,0,0,0,0,0,0,0],"id":78,"left_children":[1,3,5,7,9,11,13,-1,-1,-1,-1,-1,-1,-1,-1],"loss_changes":[5.0434317E8,2.1072722E8,3.5389635E8,1.639281E8,4.2186525E8,9.023402E7,2.2765245E8,0E0,0E0,0E0,0E0,0E0,0E0,0E0,0E0],"parents":[2147483647,0,0,1,1,2,2,3,3,4,4,5,5,6,6],"right_children":[2,4,6,8,10,12,14,-1,-1,-1,-1,-1,-1,-1,-1],"split_conditions":[1E-45,3.9299E4,2.7186E4,4.7247E4,2E1,-4E0,1.5244E4,-2.5706268E1,-9.9606094E1,8.062259E1,-1.6149463E2,3.7959125E0,-1.4850961E2,-9.480806E0,7.682592E1],"split_indices":[0,8,8,7,1,1,7,0,0,0,0,0,0,0,0],"split_type":[1,0,0,0,0,0,0,0,0,0,0,0,0,0,0],"sum_hessian":[6.4E2,3.2E2,3.2E2,2.56E2,6.4E1,2.5E1,2.95E2,1.53E2,1.03E2,5.5E1,9E0,1.1E1,1.4E1,8.3E1,2.12E2],"tree_param":{"num_deleted":"0","num_feature":"13","num_nodes":"15","size_leaf_vector":"1"}},{"base_weights":[-2.3444326E1,2.6360803E2,-2.6033784E3,5.4715265E2,-2.4510552E3,-1.3124902E3,-4.0845178E3,1.1330681E2,-3.51445E-1,-2.3442625E2,-1.7522245E1,3.8565238E0,-7.779833E1,-4.952631E1,-2.1596486E2],"categories":[1,3,3,4],"categories_nodes":[0,3],"categories_segments":[0,2],"categories_sizes":[2,2],"default_left":[1,0,0,1,1,0,0,0,0,0,0,0,0,0,0],"id":79,"left_children":[1,3,5,7,9,11,13,-1,-1,-1,-1,-1,-1,-1,-1],"loss_changes":[4.8823955E8,4.7062768E8,7.257674E7,5.9736326E8,3.095527E8,3.0590936E7,2.622784E6,0E0,0E0,0E0,0E0,0E0,0E0,0E0,0E0],"parents":[2147483647,0,0,1,1,2,2,3,3,4,4,5,5,6,6],"right_children":[2,4,6,8,10,12,14,-1,-1,-1,-1,-1,-1,-1,-1],"split_conditions":[1E-45,1E0,-2E0,1E-45,1.073E4,2.7799E4,1E0,1.1330681E2,-3.51445E-1,-2.3442625E2,-1.7522245E1,3.8565238E0,-7.779833E1,-4.952631E1,-2.1596486E2],"split_indices":[9,5,1,12,7,8,3,0,0,0,0,0,0,0,0],"split_type":[1,0,0,1,0,0,0,0,0,0,0,0,0,0,0],"sum_hessian":[6.4E2,5.84E2,5.6E1,5.36E2,4.8E1,4E1,1.6E1,1.1E2,4.26E2,1.4E1,3.4E1,1.1E1,2.9E1,8E0,8E0],"tree_param":{"num_deleted":"0","num_feature":"13","num_nodes":"15","size_leaf_vector":"1"}},{"base_weights":[-2.9750025E1,-3.2622769E3,1.9601196E2,-6.8148553E2,-1.922916E2,-6.528269E2,1.0042445E3,4.5032356E1,-7.42913E1,-1.8304275E0,-9.160185E1,5.6976357E1,-6.034881E1],"categories":[0,1],"categories_nodes":[2,6],"categories_segments":[0,1],"categories_sizes":[1,1],"default_left":[0,0,1,0,0,0,1,0,0,0,0,0,0],"id":80,"left_children":[1,3,5,7,-1,9,11,-1,-1,-1,-1,-1,-1],"loss_changes":[4.807556E8,8.305443E7,4.2985485E8,5.56605E7,0E0,2.590342E8,2.1353485E8,0E0,0E0,0E0,0E0,0E0,0E0],"parents":[2147483647,0,0,1,1,2,2,3,3,5,5,6,6],"right_children":[2,4,6,8,-1,10,12,-1,-1,-1,-1,-1,-1],"split_conditions":[2.059E4,-3E0,1E-45,3.0905E4,-1.922916E2,6.1738E4,1E-45,4.5032356E1,-7.42913E1,-1.8304275E0,-9.160185E1,5.6976357E1,-6.034881E1],"split_indices":[8,1,0,7,0,7,9,0,0,0,0,0,0],"split_type":[0,0,1,0,0,0,1,0,0,0,0,0,0],"sum_hessian":[6.4E2,3.3E1,6.07E2,1.4E1,1.9E1,2.97E2,3.1E2,5E0,9E0,2.13E2,8.4E1,2.83E2,2.7E1],"tree_param":{"num_deleted":"0","num_feature":"13","num_nodes":"13","size_leaf_vector":"1"}},{"base_weights":[-3.3308796E1,2.7704922E3,-2.8260446E2,4.5308213E3,8.3695325E2,-1.7969223E2,-1.077113E2,3.6217332E0,2.1044708E2,6.987828E1,-6.747331E1,9.3824005E1,-1.6560131E1],"categories":[0,2,3,4,0,1,3],"categories_nodes":[0,6],"categories_segments":[0,4],"categories_sizes":[4,3],"default_left":[1,0,0,0,1,0,1,0,0,0,0,0,0],"id":81,"left_children":[1,3,5,7,9,-1,11,-1,-1,-1,-1,-1,-1],"loss_changes":[4.621611E8,1.4587165E8,3.88959E8,1.3099392E7,8.684217E7,0E0,3.4383603E8,0E0,0E0,0E0,0E0,0E0,0E0],"parents":[2147483647,0,0,1,1,2,2,3,3,4,4,6,6],"right_children":[2,4,6,8,10,-1,12,-1,-1,-1,-1,-1,-1],"split_conditions":[1E-45,9E0,1.6876E4,5.4613E4,6.6443E4,-1.7969223E2,1E-45,3.6217332E0,2.1044708E2,6.987828E1,-6.747331E1,9.3824005E1,-1.6560131E1],"split_indices":[10,1,8,8,8,0,9,0,0,0,0,0,0],"split_type":[1,0,0,0,0,0,1,0,0,0,0,0,0],"sum_hessian":[6.4E2,4.4E1,5.96E2,1.6E1,2.8E1,1.7E1,5.79E2,1E0,1.5E1,2.4E1,4E0,5.4E1,5.25E2],"tree_param":{"num_deleted":"0","num_feature":"13","num_nodes":"13","size_leaf_vector":"1"}},{"base_weights":[-3.005615E1,1.9248442E3,-3.7041324E2,3.1790884E3,5.117125E2,-1.7460097E2,-1.8974432E2,-1.8152767E1,1.6500633E2,9.469111E1,-3.6164814E1,9.026162E1,-2.124291E1],"categories":[0,2,4,0,1,3],"categories_nodes":[0,6],"categories_segments":[0,3],"categories_sizes":[3,3],"default_left":[1,0,0,0,0,0,1,0,0,0,0,0,0],"id":82,"left_children":[1,3,5,7,9,-1,11,-1,-1,-1,-1,-1,-1],"loss_changes":[4.3961507E8,1.574249E8,3.4898515E8,1.0215725E8,1.3840958E8,0E0,3.4728582E8,0E0,0E0,0E0,0E0,0E0,0E0],"parents":[2147483647,0,0,1,1,2,2,3,3,4,4,6,6],"right_children":[2,4,6,8,10,-1,12,-1,-1,-1,-1,-1,-1],"split_conditions":[1E-45,1E1,1.6876E4,4.869E4,5.0541E4,-1.7460097E2,1E-45,-1.8152767E1,1.6500633E2,9.469111E1,-3.6164814E1,9.026162E1,-2.124291E1],"split_indices":[10,1,8,8,7,0,9,0,0,0,0,0,0],"split_type":[1,0,0,0,0,0,1,0,0,0,0,0,0],"sum_hessian":[6.4E2,8.8E1,5.52E2,4E1,4.8E1,1.7E1,5.35E2,5E0,3.5E1,1.9E1,2.9E1,5.4E1,4.81E2],"tree_param":{"num_deleted":"0","num_feature":"13","num_nodes":"13","size_leaf_vector":"1"}},{"base_weights":[-2.716891E1,2.4062308E2,-2.4331956E3,3.1299827E3,-7.5010343E0,-1.1953491E3,-3.8777861E3,-5.9651474E1,2.1868443E2,2.964822E1,-3.8619247E1,6.2671375E0,-7.233822E1,-4.5666157E1,-2.0638745E2],"categories":[1,3,1,2,3,4],"categories_nodes":[0,1],"categories_segments":[0,2],"categories_sizes":[2,4],"default_left":[1,1,0,0,0,0,0,0,0,0,0,0,0,0,0],"id":83,"left_children":[1,3,5,7,9,11,13,-1,-1,-1,-1,-1,-1,-1,-1],"loss_changes":[4.2466154E8,4.2608822E8,7.166179E7,4.2663613E8,3.2139952E8,2.9744536E7,6.198144E6,0E0,0E0,0E0,0E0,0E0,0E0,0E0,0E0],"parents":[2147483647,0,0,1,1,2,2,3,3,4,4,5,5,6,6],"right_children":[2,4,6,8,10,12,14,-1,-1,-1,-1,-1,-1,-1,-1],"split_conditions":[1E-45,1E-45,-2E0,1E0,9E0,2.7799E4,1E0,-5.9651474E1,2.1868443E2,2.964822E1,-3.8619247E1,6.2671375E0,-7.233822E1,-4.5666157E1,-2.0638745E2],"split_indices":[9,12,1,1,1,8,3,0,0,0,0,0,0,0,0],"split_type":[1,1,0,0,0,0,0,0,0,0,0,0,0,0,0],"sum_hessian":[6.4E2,5.84E2,5.6E1,3.7E1,5.47E2,4E1,1.6E1,1.1E1,2.6E1,3.08E2,2.39E2,1.1E1,2.9E1,8E0,8E0],"tree_param":{"num_deleted":"0","num_feature":"13","num_nodes":"15","size_leaf_vector":"1"}},{"base_weights":[-2.8531366E1,-3.012601E3,1.7989539E2,-6.110721E2,-1.7825449E2,-1.0871274E3,6.625974E2,4.5639095E1,-7.076786E1,-9.459095E1,8.325868E1,-1.7437313E1,1.14958824E2],"categories":[],"categories_nodes":[],"categories_segments":[],"categories_sizes":[],"default_left":[0,0,1,0,0,0,0,0,0,0,0,0,0],"id":84,"left_children":[1,3,5,7,-1,9,11,-1,-1,-1,-1,-1,-1],"loss_changes":[4.0969635E8,7.374845E7,3.8455664E8,5.345675E7,0E0,5.5759744E8,9.0993146E8,0E0,0E0,0E0,0E0,0E0,0E0],"parents":[2147483647,0,0,1,1,2,2,3,3,5,5,6,6],"right_children":[2,4,6,8,-1,10,12,-1,-1,-1,-1,-1,-1],"split_conditions":[2.059E4,-3E0,1.073E4,3.0905E4,-1.7825449E2,1.5E1,1E0,4.5639095E1,-7.076786E1,-9.459095E1,8.325868E1,-1.7437313E1,1.14958824E2],"split_indices":[8,1,7,7,0,1,3,0,0,0,0,0,0],"split_type":[0,0,0,0,0,0,0,0,0,0,0,0,0],"sum_hessian":[6.4E2,3.3E1,6.07E2,1.4E1,1.9E1,1.64E2,4.43E2,5E0,9E0,1.24E2,4E1,2.9E2,1.53E2],"tree_param":{"num_deleted":"0","num_feature":"13","num_nodes":"13","size_leaf_vector":"1"}},{"base_weights":[-2.9050007E1,1.8405477E3,-3.5455014E2,3.026008E3,5.0124603E2,-1.8173787E2,-2.007392E2,-1.8653204E1,1.5751915E2,9.1520935E1,-3.450795E1,8.638563E1,-2.1163347E1],"categories":[0,2,4,0,1,3],"categories_nodes":[0,6],"categories_segments":[0,3],"categories_sizes":[3,3],"default_left":[1,0,0,0,0,0,1,0,0,0,0,0,0],"id":85,"left_children":[1,3,5,7,9,-1,11,-1,-1,-1,-1,-1,-1],"loss_changes":[4.0208445E8,1.4042224E8,3.1034602E8,9.612506E7,1.2831529E8,0E0,3.2339293E8,0E0,0E0,0E0,0E0,0E0,0E0],"parents":[2147483647,0,0,1,1,2,2,3,3,4,4,6,6],"right_children":[2,4,6,8,10,-1,12,-1,-1,-1,-1,-1,-1],"split_conditions":[1E-45,1E1,1.6043E4,4.869E4,5.0541E4,-1.8173787E2,1E-45,-1.8653204E1,1.5751915E2,9.1520935E1,-3.450795E1,8.638563E1,-2.1163347E1],"split_indices":[10,1,8,8,7,0,9,0,0,0,0,0,0],"split_type":[1,0,0,0,0,0,1,0,0,0,0,0,0],"sum_hessian":[6.4E2,8.8E1,5.52E2,4E1,4.8E1,1.2E1,5.4E2,5E0,3.5E1,1.9E1,2.9E1,5.4E1,4.86E2],"tree_param":{"num_deleted":"0","num_feature":"13","num_nodes":"13","size_leaf_vector":"1"}},{"base_weights":[-2.6521187E1,-7.989677E2,7.4672595E2,-1.1483933E3,5.6503076E2,1.0354224E3,-2.071138E3,-2.2214058E1,-8.9604706E1,7.4355095E1,-1.5534123E2,1.5271353E1,1.0596342E2,-1.53986E2,2.6338896E1],"categories":[0],"categories_nodes":[0],"categories_segments":[0],"categories_sizes":[1],"default_left":[1,1,0,0,0,0,1,0,0,0,0,0,0,0,0],"id":86,"left_children":[1,3,5,7,9,11,13,-1,-1,-1,-1,-1,-1,-1,-1],"loss_changes":[3.9420598E8,1.637726E8,2.8990138E8,1.3695632E8,3.8025194E8,2.7301344E8,1.4203229E8,0E0,0E0,0E0,0E0,0E0,0E0,0E0,0E0],"parents":[2147483647,0,0,1,1,2,2,3,3,4,4,5,5,6,6],"right_children":[2,4,6,8,10,12,14,-1,-1,-1,-1,-1,-1,-1,-1],"split_conditions":[1E-45,3.9299E4,1E0,4.7247E4,2E1,1E0,2.3951E4,-2.2214058E1,-8.9604706E1,7.4355095E1,-1.5534123E2,1.5271353E1,1.0596342E2,-1.53986E2,2.6338896E1],"split_indices":[0,8,5,7,1,3,7,0,0,0,0,0,0,0,0],"split_type":[1,0,0,0,0,0,0,0,0,0,0,0,0,0,0],"sum_hessian":[6.4E2,3.2E2,3.2E2,2.56E2,6.4E1,2.96E2,2.4E1,1.53E2,1.03E2,5.5E1,9E0,2.02E2,9.4E1,1.4E1,1E1],"tree_param":{"num_deleted":"0","num_feature":"13","num_nodes":"15","size_leaf_vector":"1"}},{"base_weights":[-2.8391874E1,2.2583545E2,-2.3121511E3,4.8016995E2,-2.207337E3,-1.111829E3,-3.7311355E3,-8.295075E0,8.088908E1,-2.2132816E2,-1.0209751E1,-7.5983205E0,-8.0658005E1,-4.2167854E1,-2.0035345E2],"categories":[1,3],"categories_nodes":[0],"categories_segments":[0],"categories_sizes":[2],"default_left":[1,0,0,0,1,0,0,0,0,0,0,0,0,0,0],"id":87,"left_children":[1,3,5,7,9,11,13,-1,-1,-1,-1,-1,-1,-1,-1],"loss_changes":[3.8260986E8,3.7818803E8,7.092502E7,4.8128102E8,3.0024595E8,2.9059692E7,1.0663296E7,0E0,0E0,0E0,0E0,0E0,0E0,0E0,0E0],"parents":[2147483647,0,0,1,1,2,2,3,3,4,4,5,5,6,6],"right_children":[2,4,6,8,10,12,14,-1,-1,-1,-1,-1,-1,-1,-1],"split_conditions":[1E-45,1E0,-2E0,1E0,1.073E4,4.1193E4,1E0,-8.295075E0,8.088908E1,-2.2132816E2,-1.0209751E1,-7.5983205E0,-8.0658005E1,-4.2167854E1,-2.0035345E2],"split_indices":[9,5,1,3,7,7,3,0,0,0,0,0,0,0,0],"split_type":[1,0,0,0,0,0,0,0,0,0,0,0,0,0,0],"sum_hessian":[6.4E2,5.84E2,5.6E1,5.36E2,4.8E1,4E1,1.6E1,3.62E2,1.74E2,1.4E1,3.4E1,2.2E1,1.8E1,8E0,8E0],"tree_param":{"num_deleted":"0","num_feature":"13","num_nodes":"15","size_leaf_vector":"1"}},{"base_weights":[-3.4648212E1,2.4770413E3,-2.5789203E2,4.0835115E3,7.2599805E2,-2.8377778E3,-5.978554E1,2.208995E0,1.9013458E2,6.3827076E1,-6.632992E1,-2.6136871E1,-1.6771623E2,-5.537847E1,1.782161E1],"categories":[0,2,3,4],"categories_nodes":[0],"categories_segments":[0],"categories_sizes":[4],"default_left":[1,0,0,0,1,0,1,0,0,0,0,0,0,0,0],"id":88,"left_children":[1,3,5,7,9,11,13,-1,-1,-1,-1,-1,-1,-1,-1],"loss_changes":[3.708533E8,1.2225091E8,3.0802237E8,1.2785344E7,7.878981E7,6.464928E7,3.1068298E8,0E0,0E0,0E0,0E0,0E0,0E0,0E0,0E0],"parents":[2147483647,0,0,1,1,2,2,3,3,4,4,5,5,6,6],"right_children":[2,4,6,8,10,12,14,-1,-1,-1,-1,-1,-1,-1,-1],"split_conditions":[1E-45,9E0,2.059E4,5.4613E4,6.6443E4,-3E0,1.073E4,2.208995E0,1.9013458E2,6.3827076E1,-6.632992E1,-2.6136871E1,-1.6771623E2,-5.537847E1,1.782161E1],"split_indices":[10,1,8,8,8,1,7,0,0,0,0,0,0,0,0],"split_type":[1,0,0,0,0,0,0,0,0,0,0,0,0,0,0],"sum_hessian":[6.4E2,4.4E1,5.96E2,1.6E1,2.8E1,3.3E1,5.63E2,1E0,1.5E1,2.4E1,4E0,1.4E1,1.9E1,1.53E2,4.1E2],